{"learner":{"attributes":{"best_iteration":"24","best_ntree_limit":"25"},"feature_names":["Pclass","Age","SibSp","Parch","Fare","male"],"feature_types":["int","float","int","int","float","int"],"gradient_booster":{"model":{"gbtree_model_param":{"num_parallel_tree":"1","num_trees":"75","size_leaf_vector":"0"},"tree_info":[0,1,2,0,1,2,0,1,2,0,1,2,0,1,2,0,1,2,0,1,2,0,1,2,0,1,2,0,1,2,0,1,2,0,1,2,0,1,2,0,1,2,0,1,2,0,1,2,0,1,2,0,1,2,0,1,2,0,1,2,0,1,2,0,1,2,0,1,2,0,1,2,0,1,2],"trees":[{"base_weights":[6.321316E-1,-1.5044253E-1,1.0594916E0,-6.011343E-1,3.319919E-1,5.6857854E-1,1.1880577E0,-4.5064384E-1,-6.9836074E-1,1.2469434E-1,1.1752577E0,2.5945944E-1,7.9999995E-1,-4.9180366E-2,1.2341636E0],"categories":[],"categories_nodes":[],"categories_segments":[],"categories_sizes":[],"default_left":[1,1,1,1,1,0,0,0,0,0,0,0,0,0,0],"id":0,"left_children":[1,3,5,7,9,11,13,-1,-1,-1,-1,-1,-1,-1,-1],"loss_changes":[1.0632579E2,2.4769073E1,1.2291061E1,5.4530334E-1,9.506681E0,2.9797935E0,9.2955475E0,0E0,0E0,0E0,0E0,0E0,0E0,0E0,0E0],"parents":[2147483647,0,0,1,1,2,2,3,3,4,4,5,5,6,6],"right_children":[2,4,6,8,10,12,14,-1,-1,-1,-1,-1,-1,-1,-1],"split_conditions":[5E-1,2.5E0,1.5E0,2.885625E1,2.335E1,4.3E1,3.5E0,-2.2532193E-2,-3.4918036E-2,6.234717E-3,5.8762886E-2,1.2972972E-2,4E-2,-2.4590183E-3,6.1708182E-2],"split_indices":[5,0,0,4,4,1,1,0,0,0,0,0,0,0,0],"split_type":[0,0,0,0,0,0,0,0,0,0,0,0,0,0,0],"sum_hessian":[3.1644443E2,1.1199999E2,2.0444443E2,5.7777775E1,5.4222218E1,4.3555553E1,1.6088889E2,2.4888887E1,3.2888885E1,4.4444443E1,9.777777E0,1.9555553E1,2.3999998E1,5.7777777E0,1.551111E2],"tree_param":{"num_deleted":"0","num_feature":"6","num_nodes":"15","size_leaf_vector":"0"}},{"base_weights":[1.1550573E-1,8.9380527E-1,-3.131423E-1,1.3383743E0,4.0442652E-1,1.645885E-1,-4.4269052E-1,4.285714E-1,1.352031E0,6.088019E-1,-4.9484542E-1,4.5405403E-1,-8.000004E-2,3.471074E-1,-5.1078075E-1],"categories":[],"categories_nodes":[],"categories_segments":[],"categories_sizes":[],"default_left":[1,1,1,0,1,0,0,0,0,0,0,0,0,0,0],"id":1,"left_children":[1,3,5,7,9,11,13,-1,-1,-1,-1,-1,-1,-1,-1],"loss_changes":[1.0618461E2,2.4043304E1,1.2787645E1,1.5086365E-1,1.0450501E1,3.1908557E0,8.883274E0,0E0,0E0,0E0,0E0,0E0,0E0,0E0,0E0],"parents":[2147483647,0,0,1,1,2,2,3,3,4,4,5,5,6,6],"right_children":[2,4,6,8,10,12,14,-1,-1,-1,-1,-1,-1,-1,-1],"split_conditions":[5E-1,2.5E0,1.5E0,5.5E0,2.335E1,4.3E1,1.3E1,2.142857E-2,6.7601554E-2,3.0440096E-2,-2.4742272E-2,2.2702701E-2,-4.000002E-3,1.7355371E-2,-2.5539039E-2],"split_indices":[5,0,0,1,4,1,1,0,0,0,0,0,0,0,0],"split_type":[0,0,0,0,0,0,0,0,0,0,0,0,0,0,0],"sum_hessian":[3.1644443E2,1.1199999E2,2.0444443E2,5.7777775E1,5.4222218E1,4.3555553E1,1.6088889E2,1.3333333E0,5.6444443E1,4.4444443E1,9.777777E0,1.9555553E1,2.3999998E1,1.2444444E1,1.4844444E2],"tree_param":{"num_deleted":"0","num_feature":"6","num_nodes":"15","size_leaf_vector":"0"}},{"base_weights":[-7.4763745E-1],"categories":[],"categories_nodes":[],"categories_segments":[],"categories_sizes":[],"default_left":[0],"id":2,"left_children":[-1],"loss_changes":[0E0],"parents":[2147483647],"right_children":[-1],"split_conditions":[-3.7381873E-2],"split_indices":[0],"split_type":[0],"sum_hessian":[3.1644443E2],"tree_param":{"num_deleted":"0","num_feature":"6","num_nodes":"1","size_leaf_vector":"0"}},{"base_weights":[5.995324E-1,-1.4525928E-1,9.946199E-1,-5.8790785E-1,3.178657E-1,5.404891E-1,1.1118445E0,-4.3787622E-1,-6.853969E-1,-2.1918355E-1,6.0617983E-1,2.4843177E-1,7.5644916E-1,-5.213818E-2,1.1541322E0],"categories":[],"categories_nodes":[],"categories_segments":[],"categories_sizes":[],"default_left":[1,1,1,1,1,0,0,0,0,0,0,0,0,0,0],"id":3,"left_children":[1,3,5,7,9,11,13,-1,-1,-1,-1,-1,-1,-1,-1],"loss_changes":[9.492759E1,2.3253048E1,1.0609985E1,5.464802E-1,8.747448E0,2.659996E0,8.25267E0,0E0,0E0,0E0,0E0,0E0,0E0,0E0,0E0],"parents":[2147483647,0,0,1,1,2,2,3,3,4,4,5,5,6,6],"right_children":[2,4,6,8,10,12,14,-1,-1,-1,-1,-1,-1,-1,-1],"split_conditions":[5E-1,2.5E0,1.5E0,2.885625E1,8.0396E0,4.3E1,3.5E0,-2.1893812E-2,-3.4269847E-2,-1.0959177E-2,3.0308992E-2,1.2421588E-2,3.782246E-2,-2.606909E-3,5.7706613E-2],"split_indices":[5,0,0,4,4,1,1,0,0,0,0,0,0,0,0],"split_type":[0,0,0,0,0,0,0,0,0,0,0,0,0,0,0],"sum_hessian":[3.2110898E2,1.11517044E2,2.0959192E2,5.6881268E1,5.463578E1,4.415298E1,1.6543893E2,2.4566303E1,3.2314964E1,1.916901E1,3.546677E1,1.9683722E1,2.4469257E1,5.7915554E0,1.5964738E2],"tree_param":{"num_deleted":"0","num_feature":"6","num_nodes":"15","size_leaf_vector":"0"}},{"base_weights":[1.1117802E-1,8.4269387E-1,-3.0359083E-1,1.2496518E0,3.8531265E-1,1.5797113E-1,-4.3072048E-1,4.091226E-1,1.2619903E0,5.77829E-1,-4.838001E-1,4.3284234E-1,-7.724562E-2,3.3612448E-1,-4.9811617E-1],"categories":[],"categories_nodes":[],"categories_segments":[],"categories_sizes":[],"default_left":[1,1,1,0,1,0,0,0,0,0,0,0,0,0,0],"id":4,"left_children":[1,3,5,7,9,11,13,-1,-1,-1,-1,-1,-1,-1,-1],"loss_changes":[9.6769936E1,2.0991882E1,1.2022747E1,1.1218262E-1,9.609746E0,2.925323E0,8.436804E0,0E0,0E0,0E0,0E0,0E0,0E0,0E0,0E0],"parents":[2147483647,0,0,1,1,2,2,3,3,4,4,5,5,6,6],"right_children":[2,4,6,8,10,12,14,-1,-1,-1,-1,-1,-1,-1,-1],"split_conditions":[5E-1,2.5E0,1.5E0,5.5E0,2.335E1,4.3E1,1.3E1,2.045613E-2,6.309952E-2,2.889145E-2,-2.4190007E-2,2.1642117E-2,-3.862281E-3,1.6806224E-2,-2.4905808E-2],"split_indices":[5,0,0,1,4,1,1,0,0,0,0,0,0,0,0],"split_type":[0,0,0,0,0,0,0,0,0,0,0,0,0,0,0],"sum_hessian":[3.17098E2,1.1436465E2,2.0273334E2,5.9601566E1,5.4763084E1,4.3728455E1,1.5900488E2,1.3564254E0,5.824514E1,4.510669E1,9.656392E0,1.9777058E1,2.3951395E1,1.2523382E1,1.464815E2],"tree_param":{"num_deleted":"0","num_feature":"6","num_nodes":"15","size_leaf_vector":"0"}},{"base_weights":[-7.3390526E-1],"categories":[],"categories_nodes":[],"categories_segments":[],"categories_sizes":[],"default_left":[0],"id":5,"left_children":[-1],"loss_changes":[0E0],"parents":[2147483647],"right_children":[-1],"split_conditions":[-3.6695264E-2],"split_indices":[0],"split_type":[0],"sum_hessian":[3.103212E2],"tree_param":{"num_deleted":"0","num_feature":"6","num_nodes":"1","size_leaf_vector":"0"}},{"base_weights":[5.6994045E-1,-1.4024857E-1,9.3718535E-1,-5.750404E-1,3.0425334E-1,5.145476E-1,1.0450747E0,-4.2524785E-1,-6.7299485E-1,-2.1564265E-1,5.793514E-1,2.3817433E-1,7.167567E-1,-5.4709177E-2,1.0842106E0],"categories":[],"categories_nodes":[],"categories_segments":[],"categories_sizes":[],"default_left":[1,1,1,1,1,0,0,0,0,0,0,0,0,0,0],"id":6,"left_children":[1,3,5,7,9,11,13,-1,-1,-1,-1,-1,-1,-1,-1],"loss_changes":[8.5142265E1,2.1814674E1,9.2647705E0,5.494118E-1,8.137057E0,2.3825731E0,7.3887024E0,0E0,0E0,0E0,0E0,0E0,0E0,0E0,0E0],"parents":[2147483647,0,0,1,1,2,2,3,3,4,4,5,5,6,6],"right_children":[2,4,6,8,10,12,14,-1,-1,-1,-1,-1,-1,-1,-1],"split_conditions":[5E-1,2.5E0,1.5E0,2.885625E1,8.0396E0,4.3E1,3.5E0,-2.1262392E-2,-3.3649743E-2,-1.0782133E-2,2.8967572E-2,1.19087165E-2,3.5837837E-2,-2.735459E-3,5.4210532E-2],"split_indices":[5,0,0,4,4,1,1,0,0,0,0,0,0,0,0],"split_type":[0,0,0,0,0,0,0,0,0,0,0,0,0,0,0],"sum_hessian":[3.249451E2,1.1096867E2,2.1397641E2,5.5948597E1,5.502008E1,4.4688053E1,1.6928836E2,2.4232847E1,3.1715748E1,1.9113821E1,3.590626E1,1.9801641E1,2.4886414E1,5.803465E0,1.634849E2],"tree_param":{"num_deleted":"0","num_feature":"6","num_nodes":"15","size_leaf_vector":"0"}},{"base_weights":[1.07339E-1,7.971489E-1,-2.9411235E-1,1.1728922E0,3.6788273E-1,1.519144E-1,-4.1890284E-1,3.906188E-1,1.1842004E0,5.5150664E-1,-4.7688195E-1,4.1309074E-1,-7.425864E-2,3.2586193E-1,-4.856341E-1],"categories":[],"categories_nodes":[],"categories_segments":[],"categories_sizes":[],"default_left":[1,1,1,0,1,0,0,0,0,0,0,0,0,0,0],"id":7,"left_children":[1,3,5,7,9,11,13,-1,-1,-1,-1,-1,-1,-1,-1],"loss_changes":[8.837569E1,1.8497948E1,1.1302797E1,8.699036E-2,8.986191E0,2.6816826E0,8.013052E0,0E0,0E0,0E0,0E0,0E0,0E0,0E0,0E0],"parents":[2147483647,0,0,1,1,2,2,3,3,4,4,5,5,6,6],"right_children":[2,4,6,8,10,12,14,-1,-1,-1,-1,-1,-1,-1,-1],"split_conditions":[5E-1,2.5E0,1.5E0,5.5E0,2.335E1,4.3E1,1.3E1,1.953094E-2,5.921002E-2,2.7575333E-2,-2.3844099E-2,2.0654537E-2,-3.712932E-3,1.6293097E-2,-2.4281705E-2],"split_indices":[5,0,0,1,4,1,1,0,0,0,0,0,0,0,0],"split_type":[0,0,0,0,0,0,0,0,0,0,0,0,0,0,0],"sum_hessian":[3.1728546E2,1.1635984E2,2.0092561E2,6.1124393E1,5.5235447E1,4.3878284E1,1.5704733E2,1.3774745E0,5.974692E1,4.5658043E1,9.577402E0,1.997985E1,2.3898436E1,1.2595048E1,1.4445229E2],"tree_param":{"num_deleted":"0","num_feature":"6","num_nodes":"15","size_leaf_vector":"0"}},{"base_weights":[-7.211199E-1],"categories":[],"categories_nodes":[],"categories_segments":[],"categories_sizes":[],"default_left":[0],"id":8,"left_children":[-1],"loss_changes":[0E0],"parents":[2147483647],"right_children":[-1],"split_conditions":[-3.6055993E-2],"split_indices":[0],"split_type":[0],"sum_hessian":[3.0398914E2],"tree_param":{"num_deleted":"0","num_feature":"6","num_nodes":"1","size_leaf_vector":"0"}},{"base_weights":[5.4303813E-1,-1.3524368E-1,8.8595504E-1,-5.625183E-1,2.9160926E-1,4.9050677E-1,9.8608154E-1,-4.1276228E-1,-6.611306E-1,-2.1191268E-1,5.5451214E-1,2.286124E-1,6.8040526E-1,-5.6924522E-2,1.0225861E0],"categories":[],"categories_nodes":[],"categories_segments":[],"categories_sizes":[],"default_left":[1,1,1,1,1,0,0,0,0,0,0,0,0,0,0],"id":9,"left_children":[1,3,5,7,9,11,13,-1,-1,-1,-1,-1,-1,-1,-1],"loss_changes":[7.6640335E1,2.0470772E1,8.173584E0,5.5387497E-1,7.5778356E0,2.1404066E0,6.6634064E0,0E0,0E0,0E0,0E0,0E0,0E0,0E0,0E0],"parents":[2147483647,0,0,1,1,2,2,3,3,4,4,5,5,6,6],"right_children":[2,4,6,8,10,12,14,-1,-1,-1,-1,-1,-1,-1,-1],"split_conditions":[5E-1,2.5E0,1.5E0,2.885625E1,8.0396E0,4.3E1,3.5E0,-2.0638114E-2,-3.305653E-2,-1.0595634E-2,2.7725607E-2,1.143062E-2,3.4020264E-2,-2.846226E-3,5.1129308E-2],"split_indices":[5,0,0,4,4,1,1,0,0,0,0,0,0,0,0],"split_type":[0,0,0,0,0,0,0,0,0,0,0,0,0,0,0],"sum_hessian":[3.279871E2,1.103409E2,2.176462E2,5.498438E1,5.5356518E1,4.5165306E1,1.7248088E2,2.3889975E1,3.1094404E1,1.90552E1,3.630132E1,1.9910307E1,2.5255E1,5.8136744E0,1.666672E2],"tree_param":{"num_deleted":"0","num_feature":"6","num_nodes":"15","size_leaf_vector":"0"}},{"base_weights":[1.0389242E-1,7.561723E-1,-2.847185E-1,1.1058654E0,3.5169393E-1,1.4635868E-1,-4.072424E-1,3.7299243E-1,1.1163628E0,5.271115E-1,-4.699282E-1,3.9464957E-1,-7.1079284E-2,3.1625E-1,-4.7333637E-1],"categories":[],"categories_nodes":[],"categories_segments":[],"categories_sizes":[],"default_left":[1,1,1,0,1,0,0,0,0,0,0,0,0,0,0],"id":10,"left_children":[1,3,5,7,9,11,13,-1,-1,-1,-1,-1,-1,-1,-1],"loss_changes":[8.083511E1,1.6444954E1,1.0624796E1,7.107544E-2,8.412648E0,2.4578967E0,7.6106167E0,0E0,0E0,0E0,0E0,0E0,0E0,0E0,0E0],"parents":[2147483647,0,0,1,1,2,2,3,3,4,4,5,5,6,6],"right_children":[2,4,6,8,10,12,14,-1,-1,-1,-1,-1,-1,-1,-1],"split_conditions":[5E-1,2.5E0,1.5E0,5.5E0,2.335E1,4.3E1,1.3E1,1.8649621E-2,5.581814E-2,2.6355574E-2,-2.349641E-2,1.9732479E-2,-3.5539642E-3,1.58125E-2,-2.366682E-2],"split_indices":[5,0,0,1,4,1,1,0,0,0,0,0,0,0,0],"split_type":[0,0,0,0,0,0,0,0,0,0,0,0,0,0,0],"sum_hessian":[3.170481E2,1.1801505E2,1.9903302E2,6.2364002E1,5.5651054E1,4.4007256E1,1.5502577E2,1.3965406E0,6.096746E1,4.615528E1,9.49577E0,2.016546E1,2.3841793E1,1.265994E1,1.4236583E2],"tree_param":{"num_deleted":"0","num_feature":"6","num_nodes":"15","size_leaf_vector":"0"}},{"base_weights":[-7.092131E-1],"categories":[],"categories_nodes":[],"categories_segments":[],"categories_sizes":[],"default_left":[0],"id":11,"left_children":[-1],"loss_changes":[0E0],"parents":[2147483647],"right_children":[-1],"split_conditions":[-3.5460655E-2],"split_indices":[0],"split_type":[0],"sum_hessian":[2.974933E2],"tree_param":{"num_deleted":"0","num_feature":"6","num_nodes":"1","size_leaf_vector":"0"}},{"base_weights":[5.184632E-1,-1.3025722E-1,8.39949E-1,-5.503256E-1,2.798349E-1,4.6815562E-1,9.3356204E-1,-4.0042043E-1,-6.497791E-1,9.841018E-2,9.8247015E-1,2.196798E-1,6.46965E-1,-5.8812637E-2,9.678478E-1],"categories":[],"categories_nodes":[],"categories_segments":[],"categories_sizes":[],"default_left":[1,1,1,1,1,0,0,0,0,0,0,0,0,0,0],"id":12,"left_children":[1,3,5,7,9,11,13,-1,-1,-1,-1,-1,-1,-1,-1],"loss_changes":[6.920172E1,1.9213926E1,7.2773895E0,5.5968475E-1,7.1246295E0,1.9278173E0,6.0473022E0,0E0,0E0,0E0,0E0,0E0,0E0,0E0,0E0],"parents":[2147483647,0,0,1,1,2,2,3,3,4,4,5,5,6,6],"right_children":[2,4,6,8,10,12,14,-1,-1,-1,-1,-1,-1,-1,-1],"split_conditions":[5E-1,2.5E0,1.5E0,2.885625E1,2.335E1,4.3E1,3.5E0,-2.0021021E-2,-3.2488953E-2,4.920509E-3,4.9123507E-2,1.09839905E-2,3.2348253E-2,-2.940632E-3,4.8392393E-2],"split_indices":[5,0,0,4,4,1,1,0,0,0,0,0,0,0,0],"split_type":[0,0,0,0,0,0,0,0,0,0,0,0,0,0,0],"sum_hessian":[3.3029153E2,1.0964193E2,2.2064961E2,5.3993244E1,5.5648685E1,4.5589066E1,1.7506055E2,2.3539146E1,3.0454098E1,4.5134693E1,1.0513994E1,2.0010622E1,2.5578444E1,5.8223395E0,1.692382E2],"tree_param":{"num_deleted":"0","num_feature":"6","num_nodes":"15","size_leaf_vector":"0"}},{"base_weights":[1.0079319E-1,7.190952E-1,-2.7541864E-1,1.0468551E0,3.3661643E-1,1.4125118E-1,-3.957413E-1,3.5618123E-1,1.0567116E0,5.0443E-1,-4.6295688E-1,3.7738922E-1,-6.774383E-2,3.072272E-1,-4.6122217E-1],"categories":[],"categories_nodes":[],"categories_segments":[],"categories_sizes":[],"default_left":[1,1,1,0,1,0,0,0,0,0,0,0,0,0,0],"id":13,"left_children":[1,3,5,7,9,11,13,-1,-1,-1,-1,-1,-1,-1,-1],"loss_changes":[7.403386E1,1.473518E1,9.985952E0,6.160736E-2,7.883649E0,2.2521834E0,7.228153E0,0E0,0E0,0E0,0E0,0E0,0E0,0E0,0E0],"parents":[2147483647,0,0,1,1,2,2,3,3,4,4,5,5,6,6],"right_children":[2,4,6,8,10,12,14,-1,-1,-1,-1,-1,-1,-1,-1],"split_conditions":[5E-1,2.5E0,1.5E0,5.5E0,2.335E1,4.3E1,1.3E1,1.7809061E-2,5.283558E-2,2.52215E-2,-2.3147844E-2,1.8869461E-2,-3.3871916E-3,1.536136E-2,-2.306111E-2],"split_indices":[5,0,0,1,4,1,1,0,0,0,0,0,0,0,0],"split_type":[0,0,0,0,0,0,0,0,0,0,0,0,0,0,0],"sum_hessian":[3.1641977E2,1.19352776E2,1.97067E2,6.3338596E1,5.6014175E1,4.4117374E1,1.5294963E2,1.4136912E0,6.1924908E1,4.6602432E1,9.411742E0,2.0335308E1,2.3782068E1,1.2718508E1,1.4023112E2],"tree_param":{"num_deleted":"0","num_feature":"6","num_nodes":"15","size_leaf_vector":"0"}},{"base_weights":[-6.9810647E-1],"categories":[],"categories_nodes":[],"categories_segments":[],"categories_sizes":[],"default_left":[0],"id":14,"left_children":[-1],"loss_changes":[0E0],"parents":[2147483647],"right_children":[-1],"split_conditions":[-3.4905326E-2],"split_indices":[0],"split_type":[0],"sum_hessian":[2.908698E2],"tree_param":{"num_deleted":"0","num_feature":"6","num_nodes":"1","size_leaf_vector":"0"}},{"base_weights":[4.9599484E-1,-1.2514798E-1,7.9837835E-1,-5.3844523E-1,2.6925525E-1,4.473137E-1,8.864825E-1,-3.8822138E-1,-6.389143E-1,-2.1024278E-1,5.1584685E-1,-4.469498E-1,4.8400164E-1,-6.0399663E-2,9.1888076E-1],"categories":[],"categories_nodes":[],"categories_segments":[],"categories_sizes":[],"default_left":[1,1,1,1,1,0,0,0,0,0,0,0,0,0,0],"id":15,"left_children":[1,3,5,7,9,11,13,-1,-1,-1,-1,-1,-1,-1,-1],"loss_changes":[6.2625824E1,1.8053228E1,6.532913E0,5.6666756E-1,6.834302E0,1.7571316E0,5.518265E0,0E0,0E0,0E0,0E0,0E0,0E0,0E0,0E0],"parents":[2147483647,0,0,1,1,2,2,3,3,4,4,5,5,6,6],"right_children":[2,4,6,8,10,12,14,-1,-1,-1,-1,-1,-1,-1,-1],"split_conditions":[5E-1,2.5E0,1.5E0,2.885625E1,8.0396E0,1.8E1,3.5E0,-1.941107E-2,-3.1945717E-2,-1.0512139E-2,2.5792344E-2,-2.2347491E-2,2.4200082E-2,-3.0199832E-3,4.594404E-2],"split_indices":[5,0,0,4,4,1,1,0,0,0,0,0,0,0,0],"split_type":[0,0,0,0,0,0,0,0,0,0,0,0,0,0,0],"sum_hessian":[3.3189743E2,1.0886266E2,2.2303476E2,5.297972E1,5.5882942E1,4.5963432E1,1.7707133E2,2.3181797E1,2.9797922E1,1.9028797E1,3.6854145E1,1.3706852E0,4.4592747E1,5.8295946E0,1.7124173E2],"tree_param":{"num_deleted":"0","num_feature":"6","num_nodes":"15","size_leaf_vector":"0"}},{"base_weights":[9.7943716E-2,6.852219E-1,-2.6622045E-1,9.945193E-1,3.2221934E-1,1.3654526E-1,-3.8440022E-1,3.4012818E-1,1.003869E0,4.8112592E-1,-4.5211974E-1,3.611975E-1,-6.428453E-2,2.987391E-1,-4.4928887E-1],"categories":[],"categories_nodes":[],"categories_segments":[],"categories_sizes":[],"default_left":[1,1,1,0,1,0,0,0,0,0,0,0,0,0,0],"id":16,"left_children":[1,3,5,7,9,11,13,-1,-1,-1,-1,-1,-1,-1,-1],"loss_changes":[6.7856606E1,1.3309193E1,9.383684E0,5.6663513E-2,7.2715764E0,2.0629752E0,6.864458E0,0E0,0E0,0E0,0E0,0E0,0E0,0E0,0E0],"parents":[2147483647,0,0,1,1,2,2,3,3,4,4,5,5,6,6],"right_children":[2,4,6,8,10,12,14,-1,-1,-1,-1,-1,-1,-1,-1],"split_conditions":[5E-1,2.5E0,1.5E0,5.5E0,2.335E1,4.3E1,1.3E1,1.700641E-2,5.0193455E-2,2.4056297E-2,-2.2605987E-2,1.8059876E-2,-3.2142268E-3,1.4936956E-2,-2.2464445E-2],"split_indices":[5,0,0,1,4,1,1,0,0,0,0,0,0,0,0],"split_type":[0,0,0,0,0,0,0,0,0,0,0,0,0,0,0],"sum_hessian":[3.154331E2,1.2039445E2,1.9503867E2,6.406661E1,5.6327835E1,4.4210495E1,1.5082817E2,1.4289988E0,6.263761E1,4.705091E1,9.276924E0,2.0490683E1,2.3719814E1,1.2771162E1,1.38057E2],"tree_param":{"num_deleted":"0","num_feature":"6","num_nodes":"15","size_leaf_vector":"0"}},{"base_weights":[-6.877147E-1],"categories":[],"categories_nodes":[],"categories_segments":[],"categories_sizes":[],"default_left":[0],"id":17,"left_children":[-1],"loss_changes":[0E0],"parents":[2147483647],"right_children":[-1],"split_conditions":[-3.4385737E-2],"split_indices":[0],"split_type":[0],"sum_hessian":[2.8415903E2],"tree_param":{"num_deleted":"0","num_feature":"6","num_nodes":"1","size_leaf_vector":"0"}},{"base_weights":[4.7510642E-1,-1.2024284E-1,7.6041955E-1,-5.268589E-1,2.5892502E-1,4.2715436E-1,8.4401315E-1,-3.761626E-1,-6.285096E-1,-2.0601128E-1,4.954916E-1,-4.4308272E-1,4.6261033E-1,-6.170882E-2,8.74793E-1],"categories":[],"categories_nodes":[],"categories_segments":[],"categories_sizes":[],"default_left":[1,1,1,1,1,0,0,0,0,0,0,0,0,0,0],"id":18,"left_children":[1,3,5,7,9,11,13,-1,-1,-1,-1,-1,-1,-1,-1],"loss_changes":[5.681196E1,1.6948734E1,5.932129E0,5.7465744E-1,6.3822227E0,1.6650457E0,5.0596695E0,0E0,0E0,0E0,0E0,0E0,0E0,0E0,0E0],"parents":[2147483647,0,0,1,1,2,2,3,3,4,4,5,5,6,6],"right_children":[2,4,6,8,10,12,14,-1,-1,-1,-1,-1,-1,-1,-1],"split_conditions":[5E-1,2.5E0,1.5E0,2.885625E1,8.0396E0,1.8E1,3.5E0,-1.880813E-2,-3.142548E-2,-1.0300565E-2,2.477458E-2,-2.2154136E-2,2.3130517E-2,-3.085441E-3,4.373965E-2],"split_indices":[5,0,0,4,4,1,1,0,0,0,0,0,0,0,0],"split_type":[0,0,0,0,0,0,0,0,0,0,0,0,0,0,0],"sum_hessian":[3.3292322E2,1.0804645E2,2.2487677E2,5.1948185E1,5.6098263E1,4.632025E1,1.7855652E2,2.28193E1,2.9128887E1,1.8961475E1,3.7136787E1,1.3632686E0,4.495698E1,5.835561E0,1.7272096E2],"tree_param":{"num_deleted":"0","num_feature":"6","num_nodes":"15","size_leaf_vector":"0"}},{"base_weights":[9.547436E-2,6.5440804E-1,-2.570519E-1,9.477931E-1,3.0906048E-1,1.325163E-1,-3.732178E-1,3.2478103E-1,9.567436E-1,4.6137506E-1,-4.4509226E-1,3.4933767E-1,-6.256085E-2,2.9073805E-1,-4.375318E-1],"categories":[],"categories_nodes":[],"categories_segments":[],"categories_sizes":[],"default_left":[1,1,1,0,1,0,0,0,0,0,0,0,0,0,0],"id":19,"left_children":[1,3,5,7,9,11,13,-1,-1,-1,-1,-1,-1,-1,-1],"loss_changes":[6.225968E1,1.2084557E1,8.827054E0,5.488205E-2,6.821317E0,1.9374915E0,6.518379E0,0E0,0E0,0E0,0E0,0E0,0E0,0E0,0E0],"parents":[2147483647,0,0,1,1,2,2,3,3,4,4,5,5,6,6],"right_children":[2,4,6,8,10,12,14,-1,-1,-1,-1,-1,-1,-1,-1],"split_conditions":[5E-1,2.5E0,1.5E0,5.5E0,2.335E1,4.3E1,1.3E1,1.6239053E-2,4.783718E-2,2.3068754E-2,-2.2254614E-2,1.7466884E-2,-3.1280424E-3,1.4536902E-2,-2.187659E-2],"split_indices":[5,0,0,1,4,1,1,0,0,0,0,0,0,0,0],"split_type":[0,0,0,0,0,0,0,0,0,0,0,0,0,0,0],"sum_hessian":[3.1412305E2,1.21162476E2,1.9296057E2,6.4566475E1,5.6595997E1,4.429025E1,1.4867032E2,1.4425406E0,6.3123936E1,4.7409107E1,9.186892E0,2.0601568E1,2.368868E1,1.2818276E1,1.3585205E2],"tree_param":{"num_deleted":"0","num_feature":"6","num_nodes":"15","size_leaf_vector":"0"}},{"base_weights":[-6.779974E-1],"categories":[],"categories_nodes":[],"categories_segments":[],"categories_sizes":[],"default_left":[0],"id":20,"left_children":[-1],"loss_changes":[0E0],"parents":[2147483647],"right_children":[-1],"split_conditions":[-3.389987E-2],"split_indices":[0],"split_type":[0],"sum_hessian":[2.7737164E2],"tree_param":{"num_deleted":"0","num_feature":"6","num_nodes":"1","size_leaf_vector":"0"}},{"base_weights":[4.5578203E-1,-1.1538341E-1,7.257423E-1,-5.1554817E-1,2.4924245E-1,4.0826952E-1,8.0548006E-1,-3.6424074E-1,-6.185389E-1,-2.0169233E-1,4.764302E-1,1.8543577E-1,5.680906E-1,-6.276209E-2,8.348622E-1],"categories":[],"categories_nodes":[],"categories_segments":[],"categories_sizes":[],"default_left":[1,1,1,1,1,0,0,0,0,0,0,0,0,0,0],"id":21,"left_children":[1,3,5,7,9,11,13,-1,-1,-1,-1,-1,-1,-1,-1],"loss_changes":[5.164174E1,1.5913232E1,5.4224777E0,5.83518E-1,5.964057E0,1.5911365E0,4.6586E0,0E0,0E0,0E0,0E0,0E0,0E0,0E0,0E0],"parents":[2147483647,0,0,1,1,2,2,3,3,4,4,5,5,6,6],"right_children":[2,4,6,8,10,12,14,-1,-1,-1,-1,-1,-1,-1,-1],"split_conditions":[5E-1,2.5E0,1.5E0,2.885625E1,8.0396E0,4.3E1,3.5E0,-1.8212037E-2,-3.0926947E-2,-1.0084617E-2,2.382151E-2,9.271788E-3,2.8404532E-2,-3.1381045E-3,4.174311E-2],"split_indices":[5,0,0,4,4,1,1,0,0,0,0,0,0,0,0],"split_type":[0,0,0,0,0,0,0,0,0,0,0,0,0,0,0],"sum_hessian":[3.333754E2,1.0718099E2,2.261944E2,5.090287E1,5.627812E1,4.6635834E1,1.7955856E2,2.2452995E1,2.8449877E1,1.8892153E1,3.7385963E1,2.038037E1,2.6255465E1,5.8403482E0,1.7371822E2],"tree_param":{"num_deleted":"0","num_feature":"6","num_nodes":"15","size_leaf_vector":"0"}},{"base_weights":[9.32486E-2,6.261122E-1,-2.4799158E-1,9.058208E-1,2.967153E-1,1.2880106E-1,-3.6219192E-1,3.100918E-1,9.144593E-1,4.4286045E-1,-4.3809023E-1,3.381596E-1,-6.0715552E-2,2.8318113E-1,-4.259456E-1],"categories":[],"categories_nodes":[],"categories_segments":[],"categories_sizes":[],"default_left":[1,1,1,0,1,0,0,0,0,0,0,0,0,0,0],"id":22,"left_children":[1,3,5,7,9,11,13,-1,-1,-1,-1,-1,-1,-1,-1],"loss_changes":[5.716451E1,1.1034309E1,8.301638E0,5.5343628E-2,6.4035234E0,1.8202214E0,6.1888657E0,0E0,0E0,0E0,0E0,0E0,0E0,0E0,0E0],"parents":[2147483647,0,0,1,1,2,2,3,3,4,4,5,5,6,6],"right_children":[2,4,6,8,10,12,14,-1,-1,-1,-1,-1,-1,-1,-1],"split_conditions":[5E-1,2.5E0,1.5E0,5.5E0,2.335E1,4.3E1,1.3E1,1.550459E-2,4.5722965E-2,2.2143023E-2,-2.1904511E-2,1.690798E-2,-3.0357777E-3,1.4159056E-2,-2.1297282E-2],"split_indices":[5,0,0,1,4,1,1,0,0,0,0,0,0,0,0],"split_type":[0,0,0,0,0,0,0,0,0,0,0,0,0,0,0],"sum_hessian":[3.125227E2,1.216794E2,1.9084329E2,6.4856415E1,5.6822987E1,4.4358616E1,1.4648468E2,1.4543968E0,6.3402016E1,4.7727745E1,9.095242E0,2.070335E1,2.3655266E1,1.2860199E1,1.3362448E2],"tree_param":{"num_deleted":"0","num_feature":"6","num_nodes":"15","size_leaf_vector":"0"}},{"base_weights":[-6.688989E-1],"categories":[],"categories_nodes":[],"categories_segments":[],"categories_sizes":[],"default_left":[0],"id":23,"left_children":[-1],"loss_changes":[0E0],"parents":[2147483647],"right_children":[-1],"split_conditions":[-3.3444945E-2],"split_indices":[0],"split_type":[0],"sum_hessian":[2.7054752E2],"tree_param":{"num_deleted":"0","num_feature":"6","num_nodes":"1","size_leaf_vector":"0"}},{"base_weights":[4.379282E-1,-1.1057609E-1,6.9407004E-1,-5.0449425E-1,2.4014845E-1,7.874229E-1,4.4332725E-1,-3.5245168E-1,-6.089761E-1,-1.9730441E-1,4.5853564E-1,-4.1654477E-1,8.3601755E-1,-2.6445094E-1,5.172923E-1],"categories":[],"categories_nodes":[],"categories_segments":[],"categories_sizes":[],"default_left":[1,1,1,1,1,0,1,0,0,0,0,0,0,0,0],"id":24,"left_children":[1,3,5,7,9,11,13,-1,-1,-1,-1,-1,-1,-1,-1],"loss_changes":[4.704122E1,1.4941656E1,4.987976E0,5.931177E-1,5.576543E0,9.993576E0,3.4949055E0,0E0,0E0,0E0,0E0,0E0,0E0,0E0,0E0],"parents":[2147483647,0,0,1,1,2,2,3,3,4,4,5,5,6,6],"right_children":[2,4,6,8,10,12,14,-1,-1,-1,-1,-1,-1,-1,-1],"split_conditions":[5E-1,2.5E0,2.626875E1,2.885625E1,8.0396E0,1.35E1,2.6775E1,-1.7622584E-2,-3.0448807E-2,-9.865221E-3,2.2926783E-2,-2.082724E-2,4.180088E-2,-1.3222547E-2,2.5864616E-2],"split_indices":[5,0,4,4,4,1,4,0,0,0,0,0,0,0,0],"split_type":[0,0,0,0,0,0,0,0,0,0,0,0,0,0,0],"sum_hessian":[3.3327884E2,1.0627308E2,2.2700575E2,4.9847805E1,5.642527E1,1.638596E2,6.314615E1,2.2084152E1,2.7763655E1,1.8821112E1,3.760416E1,6.063369E0,1.5779623E2,5.7309413E0,5.7415207E1],"tree_param":{"num_deleted":"0","num_feature":"6","num_nodes":"15","size_leaf_vector":"0"}},{"base_weights":[9.119243E-2,6.0001755E-1,-2.3912852E-1,8.679071E-1,2.8510907E-1,-3.7410215E-1,6.588452E-2,2.9601672E-1,8.763054E-1,4.2546436E-1,-4.3112233E-1,8.736463E-1,-4.4118628E-1,1.8180563E-1,-5.6876415E-1],"categories":[],"categories_nodes":[],"categories_segments":[],"categories_sizes":[],"default_left":[1,1,1,0,1,0,1,0,0,0,0,0,0,0,0],"id":25,"left_children":[1,3,5,7,9,11,13,-1,-1,-1,-1,-1,-1,-1,-1],"loss_changes":[5.252579E1,1.0126072E1,7.8340616E0,5.7369232E-2,6.015195E0,1.1405178E1,4.4470673E0,0E0,0E0,0E0,0E0,0E0,0E0,0E0,0E0],"parents":[2147483647,0,0,1,1,2,2,3,3,4,4,5,5,6,6],"right_children":[2,4,6,8,10,12,14,-1,-1,-1,-1,-1,-1,-1,-1],"split_conditions":[5E-1,2.5E0,2.626875E1,5.5E0,2.335E1,1.35E1,2.5E0,1.4800836E-2,4.381527E-2,2.1273218E-2,-2.1556117E-2,4.368232E-2,-2.2059314E-2,9.090281E-3,-2.8438209E-2],"split_indices":[5,0,4,1,4,1,2,0,0,0,0,0,0,0,0],"split_type":[0,0,0,0,0,0,0,0,0,0,0,0,0,0,0],"sum_hessian":[3.1065924E2,1.2196632E2,1.8869292E2,6.4954285E1,5.7012035E1,1.3065103E2,5.8041885E1,1.4646498E0,6.348963E1,4.8009827E1,9.002211E0,6.0525203E0,1.2459851E2,4.968099E1,8.360897E0],"tree_param":{"num_deleted":"0","num_feature":"6","num_nodes":"15","size_leaf_vector":"0"}},{"base_weights":[-6.6037226E-1],"categories":[],"categories_nodes":[],"categories_segments":[],"categories_sizes":[],"default_left":[0],"id":26,"left_children":[-1],"loss_changes":[0E0],"parents":[2147483647],"right_children":[-1],"split_conditions":[-3.3018615E-2],"split_indices":[0],"split_type":[0],"sum_hessian":[2.6371603E2],"tree_param":{"num_deleted":"0","num_feature":"6","num_nodes":"1","size_leaf_vector":"0"}},{"base_weights":[4.2120096E-1,-1.0582643E-1,6.646991E-1,-4.9367878E-1,2.3159042E-1,3.7344566E-1,7.3842174E-1,-3.4079108E-1,-5.99796E-1,-1.9286416E-1,4.416969E-1,-4.488154E-1,4.0718964E-1,-6.3129045E-2,7.654661E-1],"categories":[],"categories_nodes":[],"categories_segments":[],"categories_sizes":[],"default_left":[1,1,1,1,1,0,0,0,0,0,0,0,0,0,0],"id":27,"left_children":[1,3,5,7,9,11,13,-1,-1,-1,-1,-1,-1,-1,-1],"loss_changes":[4.2899002E1,1.4029398E1,4.6286316E0,6.033373E-1,5.2168503E0,1.5190258E0,3.977333E0,0E0,0E0,0E0,0E0,0E0,0E0,0E0,0E0],"parents":[2147483647,0,0,1,1,2,2,3,3,4,4,5,5,6,6],"right_children":[2,4,6,8,10,12,14,-1,-1,-1,-1,-1,-1,-1,-1],"split_conditions":[5E-1,2.5E0,1.5E0,2.885625E1,8.0396E0,1.8E1,3.5E0,-1.7039554E-2,-2.99898E-2,-9.643208E-3,2.2084845E-2,-2.244077E-2,2.0359483E-2,-3.1564522E-3,3.8273305E-2],"split_indices":[5,0,0,4,4,1,1,0,0,0,0,0,0,0,0],"split_type":[0,0,0,0,0,0,0,0,0,0,0,0,0,0,0],"sum_hessian":[3.3273807E2,1.053291E2,2.2740895E2,4.878678E1,5.6542316E1,4.716025E1,1.802487E2,2.171397E1,2.7072811E1,1.8748629E1,3.779369E1,1.3741792E0,4.578607E1,5.839551E0,1.7440915E2],"tree_param":{"num_deleted":"0","num_feature":"6","num_nodes":"15","size_leaf_vector":"0"}},{"base_weights":[8.934324E-2,5.7585573E-1,-2.3032872E-1,8.33481E-1,2.741761E-1,-3.6323503E-1,6.495229E-2,2.825157E-1,8.4169894E-1,4.09084E-1,-4.2419606E-1,8.318116E-1,-4.2959988E-1,1.7760877E-1,-5.595861E-1],"categories":[],"categories_nodes":[],"categories_segments":[],"categories_sizes":[],"default_left":[1,1,1,0,1,0,1,0,0,0,0,0,0,0,0],"id":28,"left_children":[1,3,5,7,9,11,13,-1,-1,-1,-1,-1,-1,-1,-1],"loss_changes":[4.8280598E1,9.334469E0,7.383585E0,6.0482025E-2,5.6537094E0,1.0626387E1,4.2547274E0,0E0,0E0,0E0,0E0,0E0,0E0,0E0,0E0],"parents":[2147483647,0,0,1,1,2,2,3,3,4,4,5,5,6,6],"right_children":[2,4,6,8,10,12,14,-1,-1,-1,-1,-1,-1,-1,-1],"split_conditions":[5E-1,2.5E0,2.626875E1,5.5E0,2.335E1,1.35E1,2.5E0,1.4125786E-2,4.2084947E-2,2.04542E-2,-2.1209804E-2,4.1590583E-2,-2.1479994E-2,8.880439E-3,-2.7979305E-2],"split_indices":[5,0,4,1,4,1,2,0,0,0,0,0,0,0,0],"split_type":[0,0,0,0,0,0,0,0,0,0,0,0,0,0,0],"sum_hessian":[3.0858456E2,1.220436E2,1.8654099E2,6.487743E1,5.716616E1,1.2848128E2,5.80597E1,1.4733838E0,6.3404053E1,4.8258137E1,8.908025E0,6.1527843E0,1.223285E2,4.9793404E1,8.266296E0],"tree_param":{"num_deleted":"0","num_feature":"6","num_nodes":"15","size_leaf_vector":"0"}},{"base_weights":[-6.523392E-1],"categories":[],"categories_nodes":[],"categories_segments":[],"categories_sizes":[],"default_left":[0],"id":29,"left_children":[-1],"loss_changes":[0E0],"parents":[2147483647],"right_children":[-1],"split_conditions":[-3.261696E-2],"split_indices":[0],"split_type":[0],"sum_hessian":[2.568874E2],"tree_param":{"num_deleted":"0","num_feature":"6","num_nodes":"1","size_leaf_vector":"0"}},{"base_weights":[4.0556154E-1,-1.0113893E-1,6.374962E-1,-4.8308352E-1,2.2352225E-1,7.2465605E-1,4.057467E-1,-3.2925433E-1,-5.9097373E-1,7.2342224E-2,7.937807E-1,-4.0536532E-1,7.699265E-1,-2.7324483E-1,4.7669053E-1],"categories":[],"categories_nodes":[],"categories_segments":[],"categories_sizes":[],"default_left":[1,1,1,1,1,0,1,0,0,0,0,0,0,0,0],"id":30,"left_children":[1,3,5,7,9,11,13,-1,-1,-1,-1,-1,-1,-1,-1],"loss_changes":[3.9172333E1,1.3172275E1,4.319832E0,6.140661E-1,4.9110994E0,8.738472E0,3.2468748E0,0E0,0E0,0E0,0E0,0E0,0E0,0E0,0E0],"parents":[2147483647,0,0,1,1,2,2,3,3,4,4,5,5,6,6],"right_children":[2,4,6,8,10,12,14,-1,-1,-1,-1,-1,-1,-1,-1],"split_conditions":[5E-1,2.5E0,2.626875E1,2.885625E1,2.335E1,1.35E1,2.6775E1,-1.6462717E-2,-2.9548688E-2,3.6171114E-3,3.9689034E-2,-2.0268267E-2,3.8496327E-2,-1.3662241E-2,2.3834527E-2],"split_indices":[5,0,4,4,4,1,4,0,0,0,0,0,0,0,0],"split_type":[0,0,0,0,0,0,0,0,0,0,0,0,0,0,0],"sum_hessian":[3.317723E2,1.0435503E2,2.2741728E2,4.7723366E1,5.6631664E1,1.6371716E2,6.3700127E1,2.1343578E1,2.6379786E1,4.5655018E1,1.0976647E1,5.999748E0,1.577174E2,5.756269E0,5.7943855E1],"tree_param":{"num_deleted":"0","num_feature":"6","num_nodes":"15","size_leaf_vector":"0"}},{"base_weights":[8.768742E-2,5.533992E-1,-2.2162788E-1,8.0207E-1,2.6385847E-1,-3.5263014E-1,6.475996E-2,2.6955244E-1,8.1015795E-1,3.9362937E-1,-4.1731733E-1,8.059367E-1,-4.1864148E-1,1.7418416E-1,-5.5030864E-1],"categories":[],"categories_nodes":[],"categories_segments":[],"categories_sizes":[],"default_left":[1,1,1,0,1,0,1,0,0,0,0,0,0,0,0],"id":31,"left_children":[1,3,5,7,9,11,13,-1,-1,-1,-1,-1,-1,-1,-1],"loss_changes":[4.4389973E1,8.639423E0,6.977474E0,6.43425E-2,5.3167567E0,1.0076579E1,4.068464E0,0E0,0E0,0E0,0E0,0E0,0E0,0E0,0E0],"parents":[2147483647,0,0,1,1,2,2,3,3,4,4,5,5,6,6],"right_children":[2,4,6,8,10,12,14,-1,-1,-1,-1,-1,-1,-1,-1],"split_conditions":[5E-1,2.5E0,2.626875E1,5.5E0,2.335E1,1.35E1,2.5E0,1.34776225E-2,4.0507898E-2,1.9681469E-2,-2.0865867E-2,4.0296834E-2,-2.0932075E-2,8.709208E-3,-2.7515432E-2],"split_indices":[5,0,4,1,4,1,2,0,0,0,0,0,0,0,0],"split_type":[0,0,0,0,0,0,0,0,0,0,0,0,0,0,0],"sum_hessian":[3.0630145E2,1.2193076E2,1.843707E2,6.464259E1,5.7288166E1,1.2634531E2,5.8025383E1,1.4806825E0,6.3161915E1,4.847527E1,8.8129E0,6.20646E0,1.2013885E2,4.987003E1,8.155355E0],"tree_param":{"num_deleted":"0","num_feature":"6","num_nodes":"15","size_leaf_vector":"0"}},{"base_weights":[-6.448109E-1],"categories":[],"categories_nodes":[],"categories_segments":[],"categories_sizes":[],"default_left":[0],"id":32,"left_children":[-1],"loss_changes":[0E0],"parents":[2147483647],"right_children":[-1],"split_conditions":[-3.2240547E-2],"split_indices":[0],"split_type":[0],"sum_hessian":[2.5009085E2],"tree_param":{"num_deleted":"0","num_feature":"6","num_nodes":"1","size_leaf_vector":"0"}},{"base_weights":[3.9098793E-1,-9.637596E-2,6.1226875E-1,-4.72691E-1,2.1624409E-1,6.9685364E-1,3.8898295E-1,-3.1783715E-1,-5.824857E-1,-1.8922968E-1,4.154459E-1,-3.9353964E-1,7.4033135E-1,-2.7081674E-1,4.5766896E-1],"categories":[],"categories_nodes":[],"categories_segments":[],"categories_sizes":[],"default_left":[1,1,1,1,1,0,1,0,0,0,0,0,0,0,0],"id":33,"left_children":[1,3,5,7,9,11,13,-1,-1,-1,-1,-1,-1,-1,-1],"loss_changes":[3.5796524E1,1.2377234E1,4.035843E0,6.252003E-1,4.7374787E0,8.072136E0,3.065853E0,0E0,0E0,0E0,0E0,0E0,0E0,0E0,0E0],"parents":[2147483647,0,0,1,1,2,2,3,3,4,4,5,5,6,6],"right_children":[2,4,6,8,10,12,14,-1,-1,-1,-1,-1,-1,-1,-1],"split_conditions":[5E-1,2.5E0,2.626875E1,2.885625E1,8.0396E0,1.35E1,2.6775E1,-1.5891857E-2,-2.9124284E-2,-9.461484E-3,2.0772295E-2,-1.9676981E-2,3.7016567E-2,-1.3540837E-2,2.2883449E-2],"split_indices":[5,0,4,4,4,1,4,0,0,0,0,0,0,0,0],"split_type":[0,0,0,0,0,0,0,0,0,0,0,0,0,0,0],"sum_hessian":[3.303808E2,1.033407E2,2.270401E2,4.666086E1,5.667984E1,1.6312454E2,6.3915565E1,2.0974026E1,2.5686832E1,1.8688862E1,3.799098E1,5.9461975E0,1.5717834E2,5.7488756E0,5.816669E1],"tree_param":{"num_deleted":"0","num_feature":"6","num_nodes":"15","size_leaf_vector":"0"}},{"base_weights":[8.608733E-2,5.32283E-1,-2.1312982E-1,7.732785E-1,2.5372583E-1,-3.4216386E-1,6.407781E-2,2.5709334E-1,7.8127927E-1,3.7712815E-1,-4.0701452E-1,7.697562E-1,-4.073923E-1,1.70447E-1,-5.4158413E-1],"categories":[],"categories_nodes":[],"categories_segments":[],"categories_sizes":[],"default_left":[1,1,1,0,1,0,1,0,0,0,0,0,0,0,0],"id":34,"left_children":[1,3,5,7,9,11,13,-1,-1,-1,-1,-1,-1,-1,-1],"loss_changes":[4.0808983E1,8.036865E0,6.5738564E0,6.867981E-2,4.913291E0,9.390522E0,3.8948002E0,0E0,0E0,0E0,0E0,0E0,0E0,0E0,0E0],"parents":[2147483647,0,0,1,1,2,2,3,3,4,4,5,5,6,6],"right_children":[2,4,6,8,10,12,14,-1,-1,-1,-1,-1,-1,-1,-1],"split_conditions":[5E-1,2.5E0,2.626875E1,5.5E0,2.335E1,1.35E1,2.5E0,1.2854667E-2,3.9063964E-2,1.8856408E-2,-2.0350726E-2,3.848781E-2,-2.0369615E-2,8.52235E-3,-2.7079208E-2],"split_indices":[5,0,4,1,4,1,2,0,0,0,0,0,0,0,0],"split_type":[0,0,0,0,0,0,0,0,0,0,0,0,0,0,0],"sum_hessian":[3.0381406E2,1.2164174E2,1.8217232E2,6.4265785E1,5.7375957E1,1.24149254E2,5.8023064E1,1.4866302E0,6.2779152E1,4.8708256E1,8.667701E0,6.2808857E0,1.1786837E2,4.996632E1,8.056743E0],"tree_param":{"num_deleted":"0","num_feature":"6","num_nodes":"15","size_leaf_vector":"0"}},{"base_weights":[-6.37678E-1],"categories":[],"categories_nodes":[],"categories_segments":[],"categories_sizes":[],"default_left":[0],"id":35,"left_children":[-1],"loss_changes":[0E0],"parents":[2147483647],"right_children":[-1],"split_conditions":[-3.1883903E-2],"split_indices":[0],"split_type":[0],"sum_hessian":[2.4333415E2],"tree_param":{"num_deleted":"0","num_feature":"6","num_nodes":"1","size_leaf_vector":"0"}},{"base_weights":[3.772269E-1,-9.1835864E-2,5.8876437E-1,-4.6248427E-1,2.0900775E-1,3.2753694E-1,6.5642315E-1,-3.0653524E-1,-5.7430875E-1,-1.8464015E-1,4.010804E-1,-4.582039E-1,3.602814E-1,-6.143182E-2,6.807628E-1],"categories":[],"categories_nodes":[],"categories_segments":[],"categories_sizes":[],"default_left":[1,1,1,1,1,0,0,0,0,0,0,0,0,0,0],"id":36,"left_children":[1,3,5,7,9,11,13,-1,-1,-1,-1,-1,-1,-1,-1],"loss_changes":[3.2763184E1,1.1617928E1,3.8028183E0,6.3664913E-1,4.4382615E0,1.4196496E0,3.1792145E0,0E0,0E0,0E0,0E0,0E0,0E0,0E0,0E0],"parents":[2147483647,0,0,1,1,2,2,3,3,4,4,5,5,6,6],"right_children":[2,4,6,8,10,12,14,-1,-1,-1,-1,-1,-1,-1,-1],"split_conditions":[5E-1,2.5E0,1.5E0,2.885625E1,8.0396E0,1.8E1,3.5E0,-1.5326763E-2,-2.8715437E-2,-9.232008E-3,2.005402E-2,-2.2910196E-2,1.8014072E-2,-3.071591E-3,3.403814E-2],"split_indices":[5,0,0,4,4,1,1,0,0,0,0,0,0,0,0],"split_type":[0,0,0,0,0,0,0,0,0,0,0,0,0,0,0],"sum_hessian":[3.2864813E2,1.0232305E2,2.2632507E2,4.5602325E1,5.672073E1,4.776146E1,1.7856361E2,2.0606283E1,2.4996042E1,1.8612856E1,3.8107872E1,1.3909403E0,4.6370518E1,5.8058662E0,1.7275775E2],"tree_param":{"num_deleted":"0","num_feature":"6","num_nodes":"15","size_leaf_vector":"0"}},{"base_weights":[8.4702075E-2,5.126866E-1,-2.0478441E-1,7.4677426E-1,2.4450439E-1,-3.3188888E-1,6.350377E-2,2.4510829E-1,7.547247E-1,3.6331972E-1,-4.0020254E-1,7.364257E-1,-3.9630032E-1,1.669189E-1,-5.330692E-1],"categories":[],"categories_nodes":[],"categories_segments":[],"categories_sizes":[],"default_left":[1,1,1,0,1,0,1,0,0,0,0,0,0,0,0],"id":37,"left_children":[1,3,5,7,9,11,13,-1,-1,-1,-1,-1,-1,-1,-1],"loss_changes":[3.7541744E1,7.4890785E0,6.1919427E0,7.331467E-2,4.6220136E0,8.752165E0,3.7296848E0,0E0,0E0,0E0,0E0,0E0,0E0,0E0,0E0],"parents":[2147483647,0,0,1,1,2,2,3,3,4,4,5,5,6,6],"right_children":[2,4,6,8,10,12,14,-1,-1,-1,-1,-1,-1,-1,-1],"split_conditions":[5E-1,2.5E0,2.626875E1,5.5E0,2.335E1,1.35E1,2.5E0,1.2255414E-2,3.7736233E-2,1.8165987E-2,-2.0010127E-2,3.6821287E-2,-1.9815017E-2,8.345946E-3,-2.665346E-2],"split_indices":[5,0,4,1,4,1,2,0,0,0,0,0,0,0,0],"split_type":[0,0,0,0,0,0,0,0,0,0,0,0,0,0,0],"sum_hessian":[3.011634E2,1.2120284E2,1.7996053E2,6.3762245E1,5.74406E1,1.2194887E2,5.8011665E1,1.4913104E0,6.2270935E1,4.8870537E1,8.570066E0,6.3412414E0,1.1560762E2,5.0054916E1,7.9567494E0],"tree_param":{"num_deleted":"0","num_feature":"6","num_nodes":"15","size_leaf_vector":"0"}},{"base_weights":[-6.30991E-1],"categories":[],"categories_nodes":[],"categories_segments":[],"categories_sizes":[],"default_left":[0],"id":38,"left_children":[-1],"loss_changes":[0E0],"parents":[2147483647],"right_children":[-1],"split_conditions":[-3.154955E-2],"split_indices":[0],"split_type":[0],"sum_hessian":[2.3663571E2],"tree_param":{"num_deleted":"0","num_feature":"6","num_nodes":"1","size_leaf_vector":"0"}},{"base_weights":[3.6420956E-1,-8.7368615E-2,5.6666964E-1,-4.524474E-1,2.0215179E-1,6.472886E-1,3.5745248E-1,-2.9534513E-1,-5.664213E-1,-1.8005165E-1,3.874578E-1,-4.6976444E-1,6.850504E-1,-2.776275E-1,4.2376152E-1],"categories":[],"categories_nodes":[],"categories_segments":[],"categories_sizes":[],"default_left":[1,1,1,1,1,0,1,0,0,0,0,0,0,0,0],"id":39,"left_children":[1,3,5,7,9,11,13,-1,-1,-1,-1,-1,-1,-1,-1],"loss_changes":[3.0005093E1,1.0903352E1,3.5865326E0,6.483183E-1,4.159177E0,7.162056E0,2.8631077E0,0E0,0E0,0E0,0E0,0E0,0E0,0E0,0E0],"parents":[2147483647,0,0,1,1,2,2,3,3,4,4,5,5,6,6],"right_children":[2,4,6,8,10,12,14,-1,-1,-1,-1,-1,-1,-1,-1],"split_conditions":[5E-1,2.5E0,2.626875E1,2.885625E1,8.0396E0,1E1,2.6775E1,-1.4767257E-2,-2.8321063E-2,-9.002583E-3,1.937289E-2,-2.3488222E-2,3.425252E-2,-1.3881375E-2,2.1188077E-2],"split_indices":[5,0,4,4,4,1,4,0,0,0,0,0,0,0,0],"split_type":[0,0,0,0,0,0,0,0,0,0,0,0,0,0,0],"sum_hessian":[3.266463E2,1.0129061E2,2.2535568E2,4.4550575E1,5.6740032E1,1.6116074E2,6.4194954E1,2.024125E1,2.4309328E1,1.8536295E1,3.820374E1,4.8957734E0,1.5626497E2,5.767679E0,5.8427273E1],"tree_param":{"num_deleted":"0","num_feature":"6","num_nodes":"15","size_leaf_vector":"0"}},{"base_weights":[8.347243E-2,4.942869E-1,-1.9649786E-1,7.222749E-1,2.357586E-1,-3.2178068E-1,6.357296E-2,2.3356918E-1,7.302069E-1,3.389583E-1,-4.6466288E-1,7.161248E-1,-3.8578832E-1,1.640648E-1,-5.245367E-1],"categories":[],"categories_nodes":[],"categories_segments":[],"categories_sizes":[],"default_left":[1,1,1,0,1,0,1,0,0,0,0,0,0,0,0],"id":40,"left_children":[1,3,5,7,9,11,13,-1,-1,-1,-1,-1,-1,-1,-1],"loss_changes":[3.453225E1,6.998579E0,5.8451347E0,7.810593E-2,4.3846726E0,8.302359E0,3.5702748E0,0E0,0E0,0E0,0E0,0E0,0E0,0E0,0E0],"parents":[2147483647,0,0,1,1,2,2,3,3,4,4,5,5,6,6],"right_children":[2,4,6,8,10,12,14,-1,-1,-1,-1,-1,-1,-1,-1],"split_conditions":[5E-1,2.5E0,2.626875E1,5.5E0,2.480835E1,1.35E1,2.5E0,1.1678459E-2,3.6510345E-2,1.6947916E-2,-2.3233144E-2,3.580624E-2,-1.9289417E-2,8.20324E-3,-2.6226837E-2],"split_indices":[5,0,4,1,4,1,2,0,0,0,0,0,0,0,0],"split_type":[0,0,0,0,0,0,0,0,0,0,0,0,0,0,0],"sum_hessian":[2.983946E2,1.2062702E2,1.7776758E2,6.3146397E1,5.748062E1,1.19813194E2,5.7954388E1,1.494805E0,6.1651592E1,5.0548847E1,6.9317727E0,6.367872E0,1.1344533E2,5.0112553E1,7.8418326E0],"tree_param":{"num_deleted":"0","num_feature":"6","num_nodes":"15","size_leaf_vector":"0"}},{"base_weights":[-6.247104E-1],"categories":[],"categories_nodes":[],"categories_segments":[],"categories_sizes":[],"default_left":[0],"id":41,"left_children":[-1],"loss_changes":[0E0],"parents":[2147483647],"right_children":[-1],"split_conditions":[-3.123552E-2],"split_indices":[0],"split_type":[0],"sum_hessian":[2.3002402E2],"tree_param":{"num_deleted":"0","num_feature":"6","num_nodes":"1","size_leaf_vector":"0"}},{"base_weights":[3.5193852E-1,-8.294842E-2,5.460073E-1,-4.425653E-1,1.9566776E-1,6.249302E-1,3.432834E-1,-2.842636E-1,-5.5880225E-1,-1.756337E-1,3.746394E-1,-4.584719E-1,6.614674E-1,-2.7465436E-1,4.0767327E-1],"categories":[],"categories_nodes":[],"categories_segments":[],"categories_sizes":[],"default_left":[1,1,1,1,1,0,1,0,0,0,0,0,0,0,0],"id":42,"left_children":[1,3,5,7,9,11,13,-1,-1,-1,-1,-1,-1,-1,-1],"loss_changes":[2.7503216E1,1.0231719E1,3.386734E0,6.601248E-1,3.90313E0,6.668167E0,2.7098684E0,0E0,0E0,0E0,0E0,0E0,0E0,0E0,0E0],"parents":[2147483647,0,0,1,1,2,2,3,3,4,4,5,5,6,6],"right_children":[2,4,6,8,10,12,14,-1,-1,-1,-1,-1,-1,-1,-1],"split_conditions":[5E-1,2.5E0,2.626875E1,2.885625E1,8.0396E0,1E1,2.6775E1,-1.4213181E-2,-2.7940113E-2,-8.7816855E-3,1.873197E-2,-2.2923594E-2,3.307337E-2,-1.3732718E-2,2.0383663E-2],"split_indices":[5,0,4,4,4,1,4,0,0,0,0,0,0,0,0],"split_type":[0,0,0,0,0,0,0,0,0,0,0,0,0,0,0],"sum_hessian":[3.2433865E2,1.0025369E2,2.2408496E2,4.3508167E1,5.6745525E1,1.5979294E2,6.429202E1,1.9879742E1,2.3628428E1,1.8462065E1,3.8283463E1,4.83638E0,1.5495656E2,5.7589483E0,5.8533073E1],"tree_param":{"num_deleted":"0","num_feature":"6","num_nodes":"15","size_leaf_vector":"0"}},{"base_weights":[8.2321286E-2,4.7689426E-1,-1.8842779E-1,6.9953966E-1,2.2736962E-1,-3.1180912E-1,6.3145965E-2,5.8078915E-1,7.725782E-1,3.2695717E-1,-4.5800215E-1,6.8879193E-1,-3.7501308E-1,1.6086513E-1,-5.164296E-1],"categories":[],"categories_nodes":[],"categories_segments":[],"categories_sizes":[],"default_left":[1,1,1,1,1,0,1,0,0,0,0,0,0,0,0],"id":43,"left_children":[1,3,5,7,9,11,13,-1,-1,-1,-1,-1,-1,-1,-1],"loss_changes":[3.176494E1,6.559931E0,5.49994E0,1.0146141E-1,4.1433196E0,7.7605934E0,3.4205492E0,0E0,0E0,0E0,0E0,0E0,0E0,0E0,0E0],"parents":[2147483647,0,0,1,1,2,2,3,3,4,4,5,5,6,6],"right_children":[2,4,6,8,10,12,14,-1,-1,-1,-1,-1,-1,-1,-1],"split_conditions":[5E-1,2.5E0,2.626875E1,2.885625E1,2.480835E1,1.35E1,2.5E0,2.9039457E-2,3.862891E-2,1.6347859E-2,-2.2900108E-2,3.4439597E-2,-1.8750655E-2,8.043257E-3,-2.582148E-2],"split_indices":[5,0,4,4,4,1,2,0,0,0,0,0,0,0,0],"split_type":[0,0,0,0,0,0,0,0,0,0,0,0,0,0,0],"sum_hessian":[2.9549908E2,1.1994185E2,1.7555724E2,6.2431812E1,5.7510036E1,1.1762837E2,5.7928864E1,2.7184834E1,3.524698E1,5.067036E1,6.839677E0,6.4006004E0,1.11227776E2,5.0189175E1,7.739687E0],"tree_param":{"num_deleted":"0","num_feature":"6","num_nodes":"15","size_leaf_vector":"0"}},{"base_weights":[-6.187699E-1],"categories":[],"categories_nodes":[],"categories_segments":[],"categories_sizes":[],"default_left":[0],"id":44,"left_children":[-1],"loss_changes":[0E0],"parents":[2147483647],"right_children":[-1],"split_conditions":[-3.0938495E-2],"split_indices":[0],"split_type":[0],"sum_hessian":[2.2348953E2],"tree_param":{"num_deleted":"0","num_feature":"6","num_nodes":"1","size_leaf_vector":"0"}},{"base_weights":[3.402771E-1,-7.868916E-2,5.2655584E-1,-4.329505E-1,1.8950628E-1,6.039968E-1,3.2983667E-1,-2.746544E-1,-5.5098855E-1,5.897985E-2,6.852672E-1,-4.4747454E-1,6.394054E-1,-2.716058E-1,3.9241022E-1],"categories":[],"categories_nodes":[],"categories_segments":[],"categories_sizes":[],"default_left":[1,1,1,1,1,0,1,0,0,0,0,0,0,0,0],"id":45,"left_children":[1,3,5,7,9,11,13,-1,-1,-1,-1,-1,-1,-1,-1],"loss_changes":[2.5234005E1,9.603954E0,3.2068062E0,6.611881E-1,3.6955078E0,6.2141495E0,2.5662346E0,0E0,0E0,0E0,0E0,0E0,0E0,0E0,0E0],"parents":[2147483647,0,0,1,1,2,2,3,3,4,4,5,5,6,6],"right_children":[2,4,6,8,10,12,14,-1,-1,-1,-1,-1,-1,-1,-1],"split_conditions":[5E-1,2.5E0,2.626875E1,2.885625E1,2.335E1,1E1,2.6775E1,-1.3732719E-2,-2.7549429E-2,2.9489927E-3,3.426336E-2,-2.2373727E-2,3.1970274E-2,-1.358029E-2,1.9620512E-2],"split_indices":[5,0,4,4,4,1,4,0,0,0,0,0,0,0,0],"split_type":[0,0,0,0,0,0,0,0,0,0,0,0,0,0,0],"sum_hessian":[3.2179755E2,9.921871E1,2.2257884E2,4.248528E1,5.6733433E1,1.5822227E2,6.435657E1,1.956896E1,2.291632E1,4.5795208E1,1.0938224E1,4.7754736E0,1.534468E2,5.7498417E0,5.8606728E1],"tree_param":{"num_deleted":"0","num_feature":"6","num_nodes":"15","size_leaf_vector":"0"}},{"base_weights":[8.130399E-2,4.6053642E-1,-1.8050689E-1,6.784759E-1,2.1939245E-1,-3.0199692E-1,6.278313E-2,6.9006723E-1,2.6786864E-1,3.155423E-1,-4.5143363E-1,6.633581E-1,-3.6436835E-1,1.5781762E-1,-5.085101E-1],"categories":[],"categories_nodes":[],"categories_segments":[],"categories_sizes":[],"default_left":[1,1,1,1,1,0,1,0,0,0,0,0,0,0,0],"id":46,"left_children":[1,3,5,7,9,11,13,-1,-1,-1,-1,-1,-1,-1,-1],"loss_changes":[2.9224926E1,6.1658783E0,5.1724257E0,1.13269806E-1,3.9169014E0,7.2537203E0,3.277913E0,0E0,0E0,0E0,0E0,0E0,0E0,0E0,0E0],"parents":[2147483647,0,0,1,1,2,2,3,3,4,4,5,5,6,6],"right_children":[2,4,6,8,10,12,14,-1,-1,-1,-1,-1,-1,-1,-1],"split_conditions":[5E-1,2.5E0,2.626875E1,5.6E1,2.480835E1,1.35E1,2.5E0,3.4503363E-2,1.3393432E-2,1.5777117E-2,-2.2571681E-2,3.3167906E-2,-1.8218419E-2,7.890881E-3,-2.5425507E-2],"split_indices":[5,0,4,1,4,1,2,0,0,0,0,0,0,0,0],"split_type":[0,0,0,0,0,0,0,0,0,0,0,0,0,0,0],"sum_hessian":[2.925102E2,1.1915517E2,1.7335501E2,6.1636326E1,5.7518845E1,1.1545817E2,5.789685E1,5.9282204E1,2.354123E0,5.0771378E1,6.747466E0,6.4222383E0,1.0903593E2,5.0259884E1,7.6369658E0],"tree_param":{"num_deleted":"0","num_feature":"6","num_nodes":"15","size_leaf_vector":"0"}},{"base_weights":[-6.131587E-1],"categories":[],"categories_nodes":[],"categories_segments":[],"categories_sizes":[],"default_left":[0],"id":47,"left_children":[-1],"loss_changes":[0E0],"parents":[2147483647],"right_children":[-1],"split_conditions":[-3.0657936E-2],"split_indices":[0],"split_type":[0],"sum_hessian":[2.1705803E2],"tree_param":{"num_deleted":"0","num_feature":"6","num_nodes":"1","size_leaf_vector":"0"}},{"base_weights":[3.2929623E-1,-7.428859E-2,5.081886E-1,-4.2330593E-1,1.8395045E-1,2.7710167E-1,5.707322E-1,-2.6358256E-1,-5.439091E-1,-1.7160065E-1,3.5474947E-1,8.121542E-2,4.2363063E-1,1.19391136E-1,6.022973E-1],"categories":[],"categories_nodes":[],"categories_segments":[],"categories_sizes":[],"default_left":[1,1,1,1,1,0,0,0,0,0,0,0,0,0,0],"id":48,"left_children":[1,3,5,7,9,11,13,-1,-1,-1,-1,-1,-1,-1,-1],"loss_changes":[2.3143177E1,9.015185E0,3.0484962E0,6.74767E-1,3.5641992E0,1.3778298E0,2.4022446E0,0E0,0E0,0E0,0E0,0E0,0E0,0E0,0E0],"parents":[2147483647,0,0,1,1,2,2,3,3,4,4,5,5,6,6],"right_children":[2,4,6,8,10,12,14,-1,-1,-1,-1,-1,-1,-1,-1],"split_conditions":[5E-1,2.5E0,1.5E0,2.885625E1,8.0396E0,4.3E1,1E1,-1.3179128E-2,-2.7195454E-2,-8.580033E-3,1.7737474E-2,4.060771E-3,2.1181531E-2,5.969557E-3,3.0114865E-2],"split_indices":[5,0,0,4,4,1,1,0,0,0,0,0,0,0,0],"split_type":[0,0,0,0,0,0,0,0,0,0,0,0,0,0,0],"sum_hessian":[3.1902753E2,9.81604E1,2.2086714E2,4.1471416E1,5.6688988E1,4.820164E1,1.726655E2,1.9212484E1,2.2258932E1,1.839388E1,3.829511E1,2.1291931E1,2.6909712E1,1.1598855E1,1.6106664E2],"tree_param":{"num_deleted":"0","num_feature":"6","num_nodes":"15","size_leaf_vector":"0"}},{"base_weights":[8.025792E-2,4.447669E-1,-1.7273457E-1,6.5858495E-1,2.114001E-1,-2.9233584E-1,6.2472884E-2,5.405908E-1,7.326772E-1,5.315995E-1,1.112282E-2,6.3962126E-1,-3.5384706E-1,1.5490696E-1,-5.007712E-1],"categories":[],"categories_nodes":[],"categories_segments":[],"categories_sizes":[],"default_left":[1,1,1,1,1,0,1,0,0,0,0,0,0,0,0],"id":49,"left_children":[1,3,5,7,9,11,13,-1,-1,-1,-1,-1,-1,-1,-1],"loss_changes":[2.6860767E1,5.8123436E0,4.8615074E0,1.4395714E-1,3.7458045E0,6.7791147E0,3.1419494E0,0E0,0E0,0E0,0E0,0E0,0E0,0E0,0E0],"parents":[2147483647,0,0,1,1,2,2,3,3,4,4,5,5,6,6],"right_children":[2,4,6,8,10,12,14,-1,-1,-1,-1,-1,-1,-1,-1],"split_conditions":[5E-1,2.5E0,2.626875E1,2.885625E1,8.0396E0,1.35E1,2.5E0,2.7029542E-2,3.663386E-2,2.6579976E-2,5.56141E-4,3.1981062E-2,-1.7692354E-2,7.745348E-3,-2.503856E-2],"split_indices":[5,0,4,4,4,1,2,0,0,0,0,0,0,0,0],"split_type":[0,0,0,0,0,0,0,0,0,0,0,0,0,0,0],"sum_hessian":[2.8944144E2,1.182746E2,1.7116684E2,6.0771618E1,5.7502975E1,1.13307785E2,5.785906E1,2.6641085E1,3.4130535E1,2.1490334E1,3.601264E1,6.4336114E0,1.06874176E2,5.0325165E1,7.5338964E0],"tree_param":{"num_deleted":"0","num_feature":"6","num_nodes":"15","size_leaf_vector":"0"}},{"base_weights":[-6.0782737E-1],"categories":[],"categories_nodes":[],"categories_segments":[],"categories_sizes":[],"default_left":[0],"id":50,"left_children":[-1],"loss_changes":[0E0],"parents":[2147483647],"right_children":[-1],"split_conditions":[-3.0391369E-2],"split_indices":[0],"split_type":[0],"sum_hessian":[2.1072804E2],"tree_param":{"num_deleted":"0","num_feature":"6","num_nodes":"1","size_leaf_vector":"0"}},{"base_weights":[3.1869748E-1,-7.042501E-2,4.9080014E-1,-4.1394368E-1,1.779328E-1,5.655901E-1,3.0519855E-1,-2.5423595E-1,-5.365413E-1,5.457278E-2,6.50378E-1,-4.3415093E-1,5.995776E-1,-2.7545488E-1,3.658937E-1],"categories":[],"categories_nodes":[],"categories_segments":[],"categories_sizes":[],"default_left":[1,1,1,1,1,0,1,0,0,0,0,0,0,0,0],"id":51,"left_children":[1,3,5,7,9,11,13,-1,-1,-1,-1,-1,-1,-1,-1],"loss_changes":[2.1274166E1,8.445837E0,2.8815613E0,6.757207E-1,3.324638E0,5.549305E0,2.4045243E0,0E0,0E0,0E0,0E0,0E0,0E0,0E0,0E0],"parents":[2147483647,0,0,1,1,2,2,3,3,4,4,5,5,6,6],"right_children":[2,4,6,8,10,12,14,-1,-1,-1,-1,-1,-1,-1,-1],"split_conditions":[5E-1,2.5E0,2.626875E1,2.885625E1,2.335E1,1E1,2.6775E1,-1.2711798E-2,-2.6827065E-2,2.728639E-3,3.25189E-2,-2.1707548E-2,2.997888E-2,-1.3772744E-2,1.8294685E-2],"split_indices":[5,0,4,4,4,1,4,0,0,0,0,0,0,0,0],"split_type":[0,0,0,0,0,0,0,0,0,0,0,0,0,0,0],"sum_hessian":[3.161557E2,9.713199E1,2.1902371E2,4.0477875E1,5.6654114E1,1.5465616E2,6.436755E1,1.8913292E1,2.156458E1,4.5808563E1,1.0845549E1,4.6977606E0,1.4995839E2,5.756677E0,5.8610878E1],"tree_param":{"num_deleted":"0","num_feature":"6","num_nodes":"15","size_leaf_vector":"0"}},{"base_weights":[7.942496E-2,4.301964E-1,-1.6513187E-1,6.4012027E-1,2.0445542E-1,-2.8266573E-1,6.200115E-2,5.2315545E-1,7.143358E-1,2.9507875E-1,-4.411004E-1,6.237407E-1,-3.4370506E-1,1.5226859E-1,-4.945518E-1],"categories":[],"categories_nodes":[],"categories_segments":[],"categories_sizes":[],"default_left":[1,1,1,1,1,0,1,0,0,0,0,0,0,0,0],"id":52,"left_children":[1,3,5,7,9,11,13,-1,-1,-1,-1,-1,-1,-1,-1],"loss_changes":[2.4721277E1,5.476139E0,4.556709E0,1.5440941E-1,3.5514777E0,6.423709E0,3.0294724E0,0E0,0E0,0E0,0E0,0E0,0E0,0E0,0E0],"parents":[2147483647,0,0,1,1,2,2,3,3,4,4,5,5,6,6],"right_children":[2,4,6,8,10,12,14,-1,-1,-1,-1,-1,-1,-1,-1],"split_conditions":[5E-1,2.5E0,2.626875E1,2.885625E1,2.480835E1,1.35E1,2.5E0,2.6157772E-2,3.571679E-2,1.4753938E-2,-2.205502E-2,3.1187033E-2,-1.7185254E-2,7.6134293E-3,-2.472759E-2],"split_indices":[5,0,4,4,4,1,2,0,0,0,0,0,0,0,0],"split_type":[0,0,0,0,0,0,0,0,0,0,0,0,0,0,0],"sum_hessian":[2.8635388E2,1.1732041E2,1.6903346E2,5.9838764E1,5.7481647E1,1.1123073E2,5.7802734E1,2.6353838E1,3.3484924E1,5.0881756E1,6.599891E0,6.436275E0,1.0479446E2,5.036107E1,7.4416637E0],"tree_param":{"num_deleted":"0","num_feature":"6","num_nodes":"15","size_leaf_vector":"0"}},{"base_weights":[-6.028032E-1],"categories":[],"categories_nodes":[],"categories_segments":[],"categories_sizes":[],"default_left":[0],"id":53,"left_children":[-1],"loss_changes":[0E0],"parents":[2147483647],"right_children":[-1],"split_conditions":[-3.014016E-2],"split_indices":[0],"split_type":[0],"sum_hessian":[2.0453941E2],"tree_param":{"num_deleted":"0","num_feature":"6","num_nodes":"1","size_leaf_vector":"0"}},{"base_weights":[3.086913E-1,-6.62845E-2,4.7427407E-1,-4.046914E-1,1.7289603E-1,5.48047E-1,2.9359373E-1,-2.4501067E-1,-5.293749E-1,-1.6390984E-1,3.335074E-1,-4.2370474E-1,5.811128E-1,2.0834213E-1,7.320494E-1],"categories":[],"categories_nodes":[],"categories_segments":[],"categories_sizes":[],"default_left":[1,1,1,1,1,0,1,0,0,0,0,0,0,0,0],"id":54,"left_children":[1,3,5,7,9,11,13,-1,-1,-1,-1,-1,-1,-1,-1],"loss_changes":[1.9531822E1,7.927842E0,2.744709E0,6.766615E-1,3.169495E0,5.1826973E0,2.2903547E0,0E0,0E0,0E0,0E0,0E0,0E0,0E0,0E0],"parents":[2147483647,0,0,1,1,2,2,3,3,4,4,5,5,6,6],"right_children":[2,4,6,8,10,12,14,-1,-1,-1,-1,-1,-1,-1,-1],"split_conditions":[5E-1,2.5E0,2.626875E1,2.885625E1,8.0396E0,1E1,2.5E0,-1.2250534E-2,-2.6468745E-2,-8.195492E-3,1.667537E-2,-2.1185238E-2,2.905564E-2,1.0417107E-2,3.660247E-2],"split_indices":[5,0,4,4,4,1,2,0,0,0,0,0,0,0,0],"split_type":[0,0,0,0,0,0,0,0,0,0,0,0,0,0,0],"sum_hessian":[3.1306876E2,9.6082275E1,2.169865E2,3.9501377E1,5.65809E1,1.5263245E2,6.435405E1,1.8620008E1,2.0881369E1,1.8262812E1,3.8318085E1,4.6339474E0,1.4799849E2,5.5113224E1,9.240828E0],"tree_param":{"num_deleted":"0","num_feature":"6","num_nodes":"15","size_leaf_vector":"0"}},{"base_weights":[7.855994E-2,4.1602063E-1,-1.5765211E-1,6.2274534E-1,1.9715486E-1,-2.7328143E-1,6.1773367E-2,5.0654405E-1,6.973154E-1,4.988143E-1,8.090926E-3,6.02478E-1,-3.3340913E-1,1.4958954E-1,-4.8712564E-1],"categories":[],"categories_nodes":[],"categories_segments":[],"categories_sizes":[],"default_left":[1,1,1,1,1,0,1,0,0,0,0,0,0,0,0],"id":55,"left_children":[1,3,5,7,9,11,13,-1,-1,-1,-1,-1,-1,-1,-1],"loss_changes":[2.2717943E1,5.1838036E0,4.276611E0,1.65411E-1,3.3285756E0,6.0003033E0,2.9050245E0,0E0,0E0,0E0,0E0,0E0,0E0,0E0,0E0],"parents":[2147483647,0,0,1,1,2,2,3,3,4,4,5,5,6,6],"right_children":[2,4,6,8,10,12,14,-1,-1,-1,-1,-1,-1,-1,-1],"split_conditions":[5E-1,2.5E0,2.626875E1,2.885625E1,8.0396E0,1.35E1,2.5E0,2.5327204E-2,3.486577E-2,2.4940716E-2,4.0454633E-4,3.0123902E-2,-1.6670456E-2,7.479477E-3,-2.4356281E-2],"split_indices":[5,0,4,4,4,1,2,0,0,0,0,0,0,0,0],"split_type":[0,0,0,0,0,0,0,0,0,0,0,0,0,0,0],"sum_hessian":[2.8317648E2,1.1628563E2,1.6689087E2,5.88525E1,5.7433125E1,1.0913515E2,5.7755726E1,2.6050825E1,3.2801674E1,2.1496393E1,3.5936733E1,6.432074E0,1.0270307E2,5.041716E1,7.338567E0],"tree_param":{"num_deleted":"0","num_feature":"6","num_nodes":"15","size_leaf_vector":"0"}},{"base_weights":[-5.9803236E-1],"categories":[],"categories_nodes":[],"categories_segments":[],"categories_sizes":[],"default_left":[0],"id":56,"left_children":[-1],"loss_changes":[0E0],"parents":[2147483647],"right_children":[-1],"split_conditions":[-2.9901618E-2],"split_indices":[0],"split_type":[0],"sum_hessian":[1.9844601E2],"tree_param":{"num_deleted":"0","num_feature":"6","num_nodes":"1","size_leaf_vector":"0"}},{"base_weights":[2.990609E-1,-6.259418E-2,4.5865324E-1,-3.9553896E-1,1.673854E-1,5.314049E-1,2.8288078E-1,-2.3590891E-1,-5.223912E-1,-1.1694881E-1,3.5552102E-1,-4.1351977E-1,5.636054E-1,-2.777038E-1,3.4178624E-1],"categories":[],"categories_nodes":[],"categories_segments":[],"categories_sizes":[],"default_left":[1,1,1,1,1,0,1,0,0,0,0,0,0,0,0],"id":57,"left_children":[1,3,5,7,9,11,13,-1,-1,-1,-1,-1,-1,-1,-1],"loss_changes":[1.7971848E1,7.421802E0,2.609478E0,6.774936E-1,3.1185002E0,4.8427925E0,2.25172E0,0E0,0E0,0E0,0E0,0E0,0E0,0E0,0E0],"parents":[2147483647,0,0,1,1,2,2,3,3,4,4,5,5,6,6],"right_children":[2,4,6,8,10,12,14,-1,-1,-1,-1,-1,-1,-1,-1],"split_conditions":[5E-1,2.5E0,2.626875E1,2.885625E1,5.5E0,1E1,2.6775E1,-1.1795445E-2,-2.611956E-2,-5.8474406E-3,1.7776052E-2,-2.0675989E-2,2.8180271E-2,-1.388519E-2,1.7089313E-2],"split_indices":[5,0,4,4,1,1,4,0,0,0,0,0,0,0,0],"split_type":[0,0,0,0,0,0,0,0,0,0,0,0,0,0,0],"sum_hessian":[3.0987933E2,9.5063034E1,2.148163E2,3.854336E1,5.651967E1,1.5050108E2,6.431521E1,1.8332975E1,2.0210386E1,2.265658E1,3.386309E1,4.569411E0,1.4593167E2,5.7623487E0,5.855286E1],"tree_param":{"num_deleted":"0","num_feature":"6","num_nodes":"15","size_leaf_vector":"0"}},{"base_weights":[7.782264E-2,4.0281573E-1,-1.50441E-1,6.063431E-1,1.9084285E-1,-2.640295E-1,6.120613E-2,4.9067867E-1,6.814753E-1,2.7636048E-1,-4.3081847E-1,5.8248895E-1,-3.2322064E-1,1.4543745E-1,-4.7641757E-1],"categories":[],"categories_nodes":[],"categories_segments":[],"categories_sizes":[],"default_left":[1,1,1,1,1,0,1,0,0,0,0,0,0,0,0],"id":58,"left_children":[1,3,5,7,9,11,13,-1,-1,-1,-1,-1,-1,-1,-1],"loss_changes":[2.0905178E1,4.897457E0,4.0017076E0,1.7678642E-1,3.2226553E0,5.603358E0,2.728032E0,0E0,0E0,0E0,0E0,0E0,0E0,0E0,0E0],"parents":[2147483647,0,0,1,1,2,2,3,3,4,4,5,5,6,6],"right_children":[2,4,6,8,10,12,14,-1,-1,-1,-1,-1,-1,-1,-1],"split_conditions":[5E-1,2.5E0,2.626875E1,2.885625E1,2.480835E1,1.35E1,2.5E0,2.4533933E-2,3.4073766E-2,1.3818025E-2,-2.1540923E-2,2.9124448E-2,-1.6161032E-2,7.2718724E-3,-2.3820879E-2],"split_indices":[5,0,4,4,4,1,2,0,0,0,0,0,0,0,0],"split_type":[0,0,0,0,0,0,0,0,0,0,0,0,0,0,0],"sum_hessian":[2.799844E2,1.15200966E2,1.6478345E2,5.782214E1,5.737883E1,1.07071785E2,5.771166E1,2.5734818E1,3.2087322E1,5.092841E1,6.45042E0,6.41972E0,1.0065207E2,5.052519E1,7.186472E0],"tree_param":{"num_deleted":"0","num_feature":"6","num_nodes":"15","size_leaf_vector":"0"}},{"base_weights":[-5.9351176E-1],"categories":[],"categories_nodes":[],"categories_segments":[],"categories_sizes":[],"default_left":[0],"id":59,"left_children":[-1],"loss_changes":[0E0],"parents":[2147483647],"right_children":[-1],"split_conditions":[-2.9675588E-2],"split_indices":[0],"split_type":[0],"sum_hessian":[1.9249037E2],"tree_param":{"num_deleted":"0","num_feature":"6","num_nodes":"1","size_leaf_vector":"0"}},{"base_weights":[2.8975537E-1,-5.869166E-2,4.4363692E-1,-3.8647738E-1,1.622814E-1,4.856273E-1,1.5410909E-1,-2.2693324E-1,-5.1557237E-1,-1.1532697E-1,3.452553E-1,-5.901602E-2,5.0278115E-1,-3.965734E-1,3.4735498E-1],"categories":[],"categories_nodes":[],"categories_segments":[],"categories_sizes":[],"default_left":[1,1,1,1,1,0,1,0,0,0,0,0,0,0,0],"id":60,"left_children":[1,3,5,7,9,11,13,-1,-1,-1,-1,-1,-1,-1,-1],"loss_changes":[1.6523651E1,6.953622E0,2.5212784E0,6.78123E-1,2.9621277E0,1.767704E0,3.1719513E0,0E0,0E0,0E0,0E0,0E0,0E0,0E0,0E0],"parents":[2147483647,0,0,1,1,2,2,3,3,4,4,5,5,6,6],"right_children":[2,4,6,8,10,12,14,-1,-1,-1,-1,-1,-1,-1,-1],"split_conditions":[5E-1,2.5E0,5.22771E1,2.885625E1,5.5E0,3.5E0,5.90521E1,-1.1346662E-2,-2.577862E-2,-5.7663484E-3,1.7262764E-2,-2.950801E-3,2.5139058E-2,-1.982867E-2,1.7367749E-2],"split_indices":[5,0,4,4,1,1,4,0,0,0,0,0,0,0,0],"split_type":[0,0,0,0,0,0,0,0,0,0,0,0,0,0,0],"sum_hessian":[3.0667892E2,9.413644E1,2.1254248E2,3.760507E1,5.6531364E1,1.8503015E2,2.7512323E1,1.8052488E1,1.955258E1,2.2604889E1,3.3926476E1,5.575183E0,1.7945497E2,6.8733983E0,2.0638926E1],"tree_param":{"num_deleted":"0","num_feature":"6","num_nodes":"15","size_leaf_vector":"0"}},{"base_weights":[7.71658E-2,3.899382E-1,-1.4325492E-1,5.908108E-1,1.8446954E-1,-2.549052E-1,6.1037783E-2,4.754909E-1,6.66692E-1,2.6754287E-1,-4.2588145E-1,5.6364995E-1,-3.1313604E-1,1.4298134E-1,-4.6932238E-1],"categories":[],"categories_nodes":[],"categories_segments":[],"categories_sizes":[],"default_left":[1,1,1,1,1,0,1,0,0,0,0,0,0,0,0],"id":61,"left_children":[1,3,5,7,9,11,13,-1,-1,-1,-1,-1,-1,-1,-1],"loss_changes":[1.920911E1,4.642294E0,3.7494588E0,1.8839645E-1,3.0731258E0,5.231106E0,2.6162925E0,0E0,0E0,0E0,0E0,0E0,0E0,0E0,0E0],"parents":[2147483647,0,0,1,1,2,2,3,3,4,4,5,5,6,6],"right_children":[2,4,6,8,10,12,14,-1,-1,-1,-1,-1,-1,-1,-1],"split_conditions":[5E-1,2.5E0,2.626875E1,2.885625E1,2.480835E1,1.35E1,2.5E0,2.3774546E-2,3.33346E-2,1.3377144E-2,-2.1294072E-2,2.8182497E-2,-1.5656803E-2,7.149067E-3,-2.346612E-2],"split_indices":[5,0,4,4,4,1,2,0,0,0,0,0,0,0,0],"split_type":[0,0,0,0,0,0,0,0,0,0,0,0,0,0,0],"sum_hessian":[2.7681882E2,1.14118286E2,1.6270053E2,5.6756214E1,5.7362072E1,1.0504402E2,5.765651E1,2.5408344E1,3.1347868E1,5.0984375E1,6.3776975E0,6.399949E0,9.864407E1,5.0573097E1,7.0834136E0],"tree_param":{"num_deleted":"0","num_feature":"6","num_nodes":"15","size_leaf_vector":"0"}},{"base_weights":[-5.892605E-1],"categories":[],"categories_nodes":[],"categories_segments":[],"categories_sizes":[],"default_left":[0],"id":62,"left_children":[-1],"loss_changes":[0E0],"parents":[2147483647],"right_children":[-1],"split_conditions":[-2.9463027E-2],"split_indices":[0],"split_type":[0],"sum_hessian":[1.8667543E2],"tree_param":{"num_deleted":"0","num_feature":"6","num_nodes":"1","size_leaf_vector":"0"}},{"base_weights":[2.8067863E-1,-5.488561E-2,4.289431E-1,-3.7749866E-1,1.574029E-1,5.0064105E-1,2.606058E-1,-2.1808648E-1,-5.0890166E-1,4.4989813E-2,5.9829843E-1,-4.014454E-1,5.317917E-1,-2.8516153E-1,3.1849846E-1],"categories":[],"categories_nodes":[],"categories_segments":[],"categories_sizes":[],"default_left":[1,1,1,1,1,0,1,0,0,0,0,0,0,0,0],"id":63,"left_children":[1,3,5,7,9,11,13,-1,-1,-1,-1,-1,-1,-1,-1],"loss_changes":[1.5176674E1,6.512238E0,2.420433E0,6.7846584E-1,2.8245082E0,4.348095E0,2.1513872E0,0E0,0E0,0E0,0E0,0E0,0E0,0E0,0E0],"parents":[2147483647,0,0,1,1,2,2,3,3,4,4,5,5,6,6],"right_children":[2,4,6,8,10,12,14,-1,-1,-1,-1,-1,-1,-1,-1],"split_conditions":[5E-1,2.5E0,2.626875E1,2.885625E1,2.335E1,1E1,2.6775E1,-1.0904324E-2,-2.5445083E-2,2.2494907E-3,2.9914921E-2,-2.007227E-2,2.6589585E-2,-1.4258076E-2,1.5924923E-2],"split_indices":[5,0,4,4,4,1,4,0,0,0,0,0,0,0,0],"split_type":[0,0,0,0,0,0,0,0,0,0,0,0,0,0,0],"sum_hessian":[3.0357184E2,9.321954E1,2.103523E2,3.6687553E1,5.6531994E1,1.4613618E2,6.421612E1,1.7778797E1,1.8908754E1,4.59248E1,1.0607193E1,4.4811125E0,1.4165508E2,5.7820187E0,5.8434097E1],"tree_param":{"num_deleted":"0","num_feature":"6","num_nodes":"15","size_leaf_vector":"0"}},{"base_weights":[7.661638E-2,3.7760803E-1,-1.3599832E-1,5.7605773E-1,1.783742E-1,-3.788754E-1,-4.3320406E-2,1.1357516E-1,5.8626825E-1,2.5910318E-1,-4.2101264E-1,-1.3083541E-1,-5.239936E-1,-6.040449E-3,-5.0794226E-1],"categories":[],"categories_nodes":[],"categories_segments":[],"categories_sizes":[],"default_left":[1,1,1,0,1,0,1,0,0,0,0,0,0,0,0],"id":64,"left_children":[1,3,5,7,9,11,13,-1,-1,-1,-1,-1,-1,-1,-1],"loss_changes":[1.76334E1,4.404459E0,3.624306E0,2.0098305E-1,2.9317837E0,1.5347757E0,2.044275E0,0E0,0E0,0E0,0E0,0E0,0E0,0E0,0E0],"parents":[2147483647,0,0,1,1,2,2,3,3,4,4,5,5,6,6],"right_children":[2,4,6,8,10,12,14,-1,-1,-1,-1,-1,-1,-1,-1],"split_conditions":[5E-1,2.5E0,7.9104004E0,5.5E0,2.480835E1,2.95E1,2.5E0,5.678758E-3,2.9313413E-2,1.2955159E-2,-2.1050632E-2,-6.541771E-3,-2.6199682E-2,-3.0202244E-4,-2.5397113E-2],"split_indices":[5,0,4,1,4,1,2,0,0,0,0,0,0,0,0],"split_type":[0,0,0,0,0,0,0,0,0,0,0,0,0,0,0],"sum_hessian":[2.7373984E2,1.1299729E2,1.6074257E2,5.56625E1,5.7334793E1,4.3543053E1,1.1719951E2,1.4642276E0,5.419827E1,5.102955E1,6.3052435E0,1.6774021E1,2.6769032E1,1.0943199E2,7.7675166E0],"tree_param":{"num_deleted":"0","num_feature":"6","num_nodes":"15","size_leaf_vector":"0"}},{"base_weights":[-5.852479E-1],"categories":[],"categories_nodes":[],"categories_segments":[],"categories_sizes":[],"default_left":[0],"id":65,"left_children":[-1],"loss_changes":[0E0],"parents":[2147483647],"right_children":[-1],"split_conditions":[-2.9262394E-2],"split_indices":[0],"split_type":[0],"sum_hessian":[1.8103635E2],"tree_param":{"num_deleted":"0","num_feature":"6","num_nodes":"1","size_leaf_vector":"0"}},{"base_weights":[2.722232E-1,-5.100345E-2,4.1495457E-1,-3.6841026E-1,1.5321735E-1,4.5661256E-1,1.3489205E-1,-2.0783226E-1,-5.0280076E-1,-1.18338525E-1,3.3170894E-1,-2.6213583E-1,4.6814314E-1,-4.011358E-1,3.2367417E-1],"categories":[],"categories_nodes":[],"categories_segments":[],"categories_sizes":[],"default_left":[1,1,1,1,1,0,1,0,0,0,0,0,0,0,0],"id":66,"left_children":[1,3,5,7,9,11,13,-1,-1,-1,-1,-1,-1,-1,-1],"loss_changes":[1.3924049E1,6.097837E0,2.3785706E0,6.8927574E-1,2.822352E0,1.6281776E0,3.0139818E0,0E0,0E0,0E0,0E0,0E0,0E0,0E0,0E0],"parents":[2147483647,0,0,1,1,2,2,3,3,4,4,5,5,6,6],"right_children":[2,4,6,8,10,12,14,-1,-1,-1,-1,-1,-1,-1,-1],"split_conditions":[5E-1,2.5E0,5.22771E1,2.885625E1,5.5E0,1.5E0,5.90521E1,-1.03916135E-2,-2.5140038E-2,-5.9169265E-3,1.6585447E-2,-1.3106792E-2,2.3407158E-2,-2.005679E-2,1.618371E-2],"split_indices":[5,0,4,4,1,1,4,0,0,0,0,0,0,0,0],"split_type":[0,0,0,0,0,0,0,0,0,0,0,0,0,0,0],"sum_hessian":[3.0035495E2,9.220103E1,2.0815393E2,3.5782574E1,5.6418457E1,1.8065236E2,2.7501568E1,1.7463085E1,1.8319487E1,2.2509567E1,3.390889E1,2.5092115E0,1.7814316E2,6.870009E0,2.063156E1],"tree_param":{"num_deleted":"0","num_feature":"6","num_nodes":"15","size_leaf_vector":"0"}},{"base_weights":[7.5743295E-2,3.6562198E-1,-1.290227E-1,5.618473E-1,1.7219798E-1,-3.6969328E-1,-3.85965E-2,4.45214E-1,6.407065E-1,4.518039E-1,-2.62375E-3,-1.2156766E-1,-5.16767E-1,-1.7730233E-3,-5.0152147E-1],"categories":[],"categories_nodes":[],"categories_segments":[],"categories_sizes":[],"default_left":[1,1,1,1,1,0,1,0,0,0,0,0,0,0,0],"id":67,"left_children":[1,3,5,7,9,11,13,-1,-1,-1,-1,-1,-1,-1,-1],"loss_changes":[1.6181545E1,4.183938E0,3.4685326E0,2.2562599E-1,2.8479986E0,1.5279121E0,2.0011086E0,0E0,0E0,0E0,0E0,0E0,0E0,0E0,0E0],"parents":[2147483647,0,0,1,1,2,2,3,3,4,4,5,5,6,6],"right_children":[2,4,6,8,10,12,14,-1,-1,-1,-1,-1,-1,-1,-1],"split_conditions":[5E-1,2.5E0,7.9104004E0,2.885625E1,8.0396E0,2.95E1,2.5E0,2.2260701E-2,3.2035325E-2,2.2590196E-2,-1.311875E-4,-6.078383E-3,-2.583835E-2,-8.865116E-5,-2.5076075E-2],"split_indices":[5,0,4,4,4,1,2,0,0,0,0,0,0,0,0],"split_type":[0,0,0,0,0,0,0,0,0,0,0,0,0,0,0],"sum_hessian":[2.7081784E2,1.11784134E2,1.5903369E2,5.4544704E1,5.723943E1,4.2590405E1,1.1644328E2,2.4683409E1,2.9861298E1,2.141092E1,3.582851E1,1.6529814E1,2.606059E1,1.0879314E2,7.6501455E0],"tree_param":{"num_deleted":"0","num_feature":"6","num_nodes":"15","size_leaf_vector":"0"}},{"base_weights":[-5.8143234E-1],"categories":[],"categories_nodes":[],"categories_segments":[],"categories_sizes":[],"default_left":[0],"id":68,"left_children":[-1],"loss_changes":[0E0],"parents":[2147483647],"right_children":[-1],"split_conditions":[-2.9071618E-2],"split_indices":[0],"split_type":[0],"sum_hessian":[1.7550237E2],"tree_param":{"num_deleted":"0","num_feature":"6","num_nodes":"1","size_leaf_vector":"0"}},{"base_weights":[2.6365066E-1,-4.7615685E-2,4.0113103E-1,-3.5957837E-1,1.4834657E-1,4.7356775E-1,2.3565541E-1,-1.9927907E-1,-4.9637204E-1,-1.1680715E-1,3.2203743E-1,-3.3332032E-1,5.081799E-1,-2.9537964E-1,2.9270408E-1],"categories":[],"categories_nodes":[],"categories_segments":[],"categories_sizes":[],"default_left":[1,1,1,1,1,0,1,0,0,0,0,0,0,0,0],"id":69,"left_children":[1,3,5,7,9,11,13,-1,-1,-1,-1,-1,-1,-1,-1],"loss_changes":[1.2789284E1,5.697049E0,2.3707962E0,6.885042E-1,2.681583E0,4.1645927E0,2.057002E0,0E0,0E0,0E0,0E0,0E0,0E0,0E0,0E0],"parents":[2147483647,0,0,1,1,2,2,3,3,4,4,5,5,6,6],"right_children":[2,4,6,8,10,12,14,-1,-1,-1,-1,-1,-1,-1,-1],"split_conditions":[5E-1,2.5E0,2.626875E1,2.885625E1,5.5E0,1.35E1,2.6775E1,-9.963954E-3,-2.4818603E-2,-5.8403574E-3,1.6101873E-2,-1.6666016E-2,2.5408996E-2,-1.4768982E-2,1.4635204E-2],"split_indices":[5,0,4,4,1,1,4,0,0,0,0,0,0,0,0],"split_type":[0,0,0,0,0,0,0,0,0,0,0,0,0,0,0],"sum_hessian":[2.974175E2,9.1318634E1,2.0609888E2,3.490947E1,5.640917E1,1.4205336E2,6.404551E1,1.720494E1,1.7704527E1,2.245588E1,3.395329E1,5.4878917E0,1.3656548E2,5.807642E0,5.823787E1],"tree_param":{"num_deleted":"0","num_feature":"6","num_nodes":"15","size_leaf_vector":"0"}},{"base_weights":[7.5189024E-2,3.543931E-1,-1.219473E-1,5.484223E-1,1.6688211E-1,-3.6115268E-1,-3.3388734E-2,4.3178397E-1,6.2844634E-1,4.2417702E-1,-1.3889367E-2,-1.13266304E-1,-5.100541E-1,2.8372218E-3,-4.9376544E-1],"categories":[],"categories_nodes":[],"categories_segments":[],"categories_sizes":[],"default_left":[1,1,1,1,1,0,1,0,0,0,0,0,0,0,0],"id":70,"left_children":[1,3,5,7,9,11,13,-1,-1,-1,-1,-1,-1,-1,-1],"loss_changes":[1.48534155E1,3.969286E0,3.344716E0,2.3656273E-1,2.7127647E0,1.518775E0,1.9484726E0,0E0,0E0,0E0,0E0,0E0,0E0,0E0,0E0],"parents":[2147483647,0,0,1,1,2,2,3,3,4,4,5,5,6,6],"right_children":[2,4,6,8,10,12,14,-1,-1,-1,-1,-1,-1,-1,-1],"split_conditions":[5E-1,2.5E0,7.9104004E0,2.885625E1,5.5E0,2.95E1,2.5E0,2.15892E-2,3.1422317E-2,2.120885E-2,-6.944683E-4,-5.6633153E-3,-2.5502706E-2,1.4186109E-4,-2.4688272E-2],"split_indices":[5,0,4,4,1,1,2,0,0,0,0,0,0,0,0],"split_type":[0,0,0,0,0,0,0,0,0,0,0,0,0,0,0],"sum_hessian":[2.6807443E2,1.10614075E2,1.5746036E2,5.3416245E1,5.7197834E1,4.171255E1,1.157478E2,2.4338121E1,2.9078123E1,2.3047493E1,3.415034E1,1.6314074E1,2.5398476E1,1.08225624E2,7.5221815E0],"tree_param":{"num_deleted":"0","num_feature":"6","num_nodes":"15","size_leaf_vector":"0"}},{"base_weights":[-5.778321E-1],"categories":[],"categories_nodes":[],"categories_segments":[],"categories_sizes":[],"default_left":[0],"id":71,"left_children":[-1],"loss_changes":[0E0],"parents":[2147483647],"right_children":[-1],"split_conditions":[-2.8891606E-2],"split_indices":[0],"split_type":[0],"sum_hessian":[1.701733E2],"tree_param":{"num_deleted":"0","num_feature":"6","num_nodes":"1","size_leaf_vector":"0"}},{"base_weights":[2.5557414E-1,-4.4150997E-2,3.882357E-1,-3.5081148E-1,1.4378229E-1,4.607773E-1,2.2484307E-1,-1.908642E-1,-4.9004745E-1,-1.6178626E-1,2.8978056E-1,-3.302211E-1,4.9517554E-1,-2.9282495E-1,2.8058878E-1],"categories":[],"categories_nodes":[],"categories_segments":[],"categories_sizes":[],"default_left":[1,1,1,1,1,0,1,0,0,0,0,0,0,0,0],"id":72,"left_children":[1,3,5,7,9,11,13,-1,-1,-1,-1,-1,-1,-1,-1],"loss_changes":[1.1759211E1,5.3238726E0,2.3239212E0,6.872525E-1,2.6095567E0,3.996786E0,1.9557223E0,0E0,0E0,0E0,0E0,0E0,0E0,0E0,0E0],"parents":[2147483647,0,0,1,1,2,2,3,3,4,4,5,5,6,6],"right_children":[2,4,6,8,10,12,14,-1,-1,-1,-1,-1,-1,-1,-1],"split_conditions":[5E-1,2.5E0,2.626875E1,2.885625E1,8.0396E0,1.35E1,2.6775E1,-9.54321E-3,-2.4502372E-2,-8.089313E-3,1.4489028E-2,-1.6511055E-2,2.4758777E-2,-1.4641248E-2,1.4029439E-2],"split_indices":[5,0,4,4,4,1,4,0,0,0,0,0,0,0,0],"split_type":[0,0,0,0,0,0,0,0,0,0,0,0,0,0,0],"sum_hessian":[2.943088E2,9.0502266E1,2.0380653E2,3.4059284E1,5.6442978E1,1.3988263E2,6.3923912E1,1.6954082E1,1.71052E1,1.8213894E1,3.8229084E1,5.4711804E0,1.3441145E2,5.8010545E0,5.8122856E1],"tree_param":{"num_deleted":"0","num_feature":"6","num_nodes":"15","size_leaf_vector":"0"}},{"base_weights":[7.455017E-2,3.4334055E-1,-1.1532464E-1,5.3556204E-1,1.6154706E-1,-2.2345454E-1,7.255829E-2,4.1882464E-1,6.168825E-1,4.3346852E-1,-7.5026704E-3,5.396078E-1,-2.8109172E-1,1.4730392E-1,-4.401671E-1],"categories":[],"categories_nodes":[],"categories_segments":[],"categories_sizes":[],"default_left":[1,1,1,1,1,0,1,0,0,0,0,0,0,0,0],"id":73,"left_children":[1,3,5,7,9,11,13,-1,-1,-1,-1,-1,-1,-1,-1],"loss_changes":[1.3631962E1,3.774973E0,3.2021937E0,2.4742222E-1,2.679708E0,4.5401964E0,2.2891793E0,0E0,0E0,0E0,0E0,0E0,0E0,0E0,0E0],"parents":[2147483647,0,0,1,1,2,2,3,3,4,4,5,5,6,6],"right_children":[2,4,6,8,10,12,14,-1,-1,-1,-1,-1,-1,-1,-1],"split_conditions":[5E-1,2.5E0,2.626875E1,2.885625E1,8.0396E0,1.35E1,2.5E0,2.0941233E-2,3.0844126E-2,2.1673426E-2,-3.7513353E-4,2.698039E-2,-1.4054586E-2,7.3651965E-3,-2.2008356E-2],"split_indices":[5,0,4,4,4,1,2,0,0,0,0,0,0,0,0],"split_type":[0,0,0,0,0,0,0,0,0,0,0,0,0,0,0],"sum_hessian":[2.653263E2,1.0950321E2,1.5582307E2,5.22792E1,5.722401E1,9.878262E1,5.7040447E1,2.3990547E1,2.8288654E1,2.133764E1,3.5886368E1,6.3501725E0,9.243246E1,5.0405052E1,6.635396E0],"tree_param":{"num_deleted":"0","num_feature":"6","num_nodes":"15","size_leaf_vector":"0"}},{"base_weights":[-5.744203E-1],"categories":[],"categories_nodes":[],"categories_segments":[],"categories_sizes":[],"default_left":[0],"id":74,"left_children":[-1],"loss_changes":[0E0],"parents":[2147483647],"right_children":[-1],"split_conditions":[-2.8721014E-2],"split_indices":[0],"split_type":[0],"sum_hessian":[1.6495508E2],"tree_param":{"num_deleted":"0","num_feature":"6","num_nodes":"1","size_leaf_vector":"0"}}]},"name":"gbtree"},"learner_model_param":{"base_score":"5E-1","boost_from_average":"1","num_class":"3","num_feature":"6","num_target":"1"},"objective":{"name":"multi:softprob","softmax_multiclass_param":{"num_class":"3"}}},"version":[1,7,2]}